the-godfather,0.04308938607573509,0.01882941462099552,-0.0027269618585705757,0.11198624968528748,-0.023562273010611534,0.023271510377526283,0.057149309664964676,-0.03670927882194519,0.09467913955450058,0.08255697786808014,-0.014880532398819923,-0.10736996680498123,-0.015391239896416664,0.031003592535853386,-0.08427207171916962,0.10682214051485062,0.08162440359592438,0.0943644791841507,-0.031166767701506615,-0.06499085575342178,-0.012727200984954834,0.08592623472213745,0.04958413541316986,0.005413942504674196,0.06866884976625443,-0.03137608990073204,-0.05504665896296501,0.0625235065817833,0.03458099067211151,0.004196815192699432,-0.08145474642515182,0.01381601206958294,-0.0287921205163002,0.02506481111049652,0.0632500872015953,-0.010546398349106312,0.05478125810623169,0.027639217674732208,-0.0002225079806521535,0.09059247374534607,0.11378517001867294,-0.06105268374085426,0.0846811980009079,0.01444300264120102,-0.03610503301024437,-0.004101920407265425,-0.04012075811624527,-0.007600770331919193,0.0651322454214096,0.02047594077885151,-0.09567564725875854,0.05546744167804718,-0.04843152314424515,0.023311009630560875,0.03598141670227051,0.01073327288031578,-0.014794920571148396,-0.09433765709400177,0.016711607575416565,-0.04088233411312103,-0.01346797589212656,0.1374470740556717,-0.09580279886722565,-0.055558059364557266,-0.020837001502513885,-0.001333890249952674,-0.06797028332948685,0.02941133826971054,-0.007017721422016621,0.024042770266532898,0.01529387291520834,0.012621277943253517,0.016456592828035355,0.05019042640924454,-0.16483181715011597,-0.057885728776454926,0.057918619364500046,0.07062597572803497,0.06885244697332382,0.09437849372625351,0.0015602618223056197,-0.025765834376215935,0.02489665523171425,-0.030984243378043175,-0.07607851922512054,-0.03336397185921669,-0.0994734838604927,0.1360119879245758,0.05739545449614525,0.00320694362744689,0.019900839775800705,0.03163018450140953,-0.04787136986851692,-0.009995797649025917,-0.04559712111949921,-0.04705006256699562,0.05429130792617798,0.05604330450296402,-0.03205516189336777,-0.034841686487197876,-0.027697082608938217,0.025486508384346962,0.025284310802817345,-0.035585131496191025,0.00094346929108724,-0.0199554655700922,-0.024388844147324562,-0.089243583381176,0.007852107286453247,-0.09409026801586151,-0.020701881498098373,0.03852193430066109,0.011973059736192226,-0.04117734357714653,0.1575988233089447,-0.018750838935375214,0.01711837202310562,-0.049042221158742905,0.05630166083574295,0.019601216539740562,-0.08985009789466858,0.001550357905216515,0.003387346165254712,0.032011616975069046,-0.038455285131931305,-0.028546543791890144,-0.08208183944225311,-0.0010135063203051686,-0.06127193197607994,0.019246352836489677,-0.07294466346502304,-0.08726132661104202,-0.03691607341170311,0.020644335076212883,0.026450159028172493,-0.05433830991387367,0.02690647915005684,0.02163005620241165,-0.03179537132382393,0.03283632919192314,0.07089363783597946,-0.06155955046415329,0.022010596469044685,0.04196232184767723,0.026974013075232506,-0.03143680840730667,0.02517392858862877,0.009718548506498337,-0.016548825427889824,-0.02037295512855053,0.041995819658041,0.045796845108270645,-0.05986333265900612,0.07438056170940399,-0.03951464593410492,-0.06373651325702667,-0.050508640706539154,-0.07091321051120758,-0.07323851436376572,-0.06590181589126587,-0.005638590548187494,0.035281430929899216,0.035946451127529144,0.08271904289722443,-0.005680107045918703,-0.06003790348768234,0.07277258485555649,-0.06953629851341248,-0.008240505121648312,0.026345109567046165,-0.09409626573324203,-0.024499161168932915,0.04037138447165489,-0.09872740507125854,-0.05569690093398094,0.02140134386718273,0.08480985462665558,-0.08618494868278503,-0.03958583250641823,0.006968025118112564,-0.05628833919763565,-0.08218049257993698,0.026818322017788887,-0.02345074526965618,-0.02962047979235649,0.014482548460364342,-0.04530426487326622,-0.0006416068645194173,0.03675902634859085,0.0332765057682991,0.029601961374282837,0.03002805821597576,0.02161412127315998,0.012041381560266018,-0.014056671410799026,0.0210631862282753,-0.008340480737388134,-0.03130543231964111,-0.06482069194316864,-0.08686962723731995,0.0618714913725853,0.07685299962759018,-0.0638142079114914,0.0365956611931324,0.031632665544748306,-0.022349726408720016,-0.05512489378452301,0.0007972733001224697,-0.07665158063173294,0.003212153911590576,-0.012947860173881054,0.14083176851272583,-0.006590343080461025,0.017394790425896645,-0.11931975930929184,0.022860251367092133,0.07033693045377731,0.00677934754639864,-0.06103787198662758,-0.05394827947020531,-0.014420776627957821,0.05400390923023224,-0.02010555937886238,0.008631032891571522,0.060090258717536926,0.004122748039662838,0.02342989481985569,0.002416699891909957,-0.028123844414949417,-0.020818233489990234,0.02763134241104126,-0.054437797516584396,0.0007438769098371267,0.034491561353206635,0.07989513874053955,0.01183334644883871,0.011223232373595238,-0.046183884143829346,0.09716785699129105,-0.018347840756177902,0.06640813499689102,-0.013759334571659565,0.026446808129549026,-0.09807024151086807,-0.027569977566599846,0.016624517738819122,0.0368025004863739,0.05254223570227623,-0.02167864888906479,-0.06322324275970459,0.0007867225212976336,0.05887487530708313,0.0747348964214325,0.10913506150245667,0.06846361607313156,-0.04278333857655525,-0.01280143577605486,-0.04424455389380455,-0.0868709608912468,-0.11200712621212006,-0.06723705679178238,0.007544202730059624,-0.03796747326850891,-0.015044761821627617,0.03583561256527901,0.12472958862781525,-0.029778260737657547,-0.04947652295231819,-0.05510547012090683,-0.011385878548026085,-0.005840471014380455,0.08834391832351685,0.0704846903681755,0.019336961209774017,0.07998551428318024,-0.014267093501985073,-0.039199311286211014,-0.09581909328699112,-0.056203242391347885,0.00427626445889473,-0.02122167870402336,-0.01717371679842472,-0.030214574187994003,0.06597549468278885,0.011887984350323677,0.030153140425682068,-0.09349773079156876,-0.01673717051744461,0.010506977327167988,0.06600956618785858,-0.09831634908914566,0.058261167258024216,-0.11882708966732025,0.022069785743951797,-0.03790750354528427,-0.059739816933870316,-0.004292657598853111,-0.04338363930583,0.021829374134540558,-0.004280551336705685
boyhood,0.04210372269153595,0.0438460111618042,-0.00851532630622387,0.09033270925283432,-0.04356996342539787,0.02366936020553112,0.06909169256687164,-0.056340329349040985,0.09394495189189911,0.0752158984541893,-0.004383770748972893,-0.11062679439783096,-0.019041188061237335,0.03482886403799057,-0.08727209270000458,0.07767816632986069,0.05897282809019089,0.11909692734479904,-0.01188567467033863,-0.06353539228439331,-0.02985045127570629,0.07567927986383438,0.02807559259235859,0.0063383085653185844,0.053381357342004776,-0.056727275252342224,-0.04551560431718826,0.05352945998311043,0.039820797741413116,0.000316381425363943,-0.0632910281419754,-0.010899343527853489,-0.037987250834703445,0.018114769831299782,0.04933977872133255,-0.02129238285124302,0.047737956047058105,0.005873897112905979,0.02087746188044548,0.08493141829967499,0.12180588394403458,-0.04445838928222656,0.07261837273836136,0.005895866081118584,-0.03443248197436333,-0.039272017776966095,-0.04922730475664139,0.01625119149684906,0.04845592752099037,0.000120806202176027,-0.05290543660521507,0.021436896175146103,-0.045523710548877716,-0.010792325250804424,0.03231487423181534,0.004915871657431126,-0.027015086263418198,-0.08353638648986816,0.02198813110589981,-0.05762236937880516,-0.01130498293787241,0.10938198864459991,-0.06604372709989548,-0.06721567362546921,-0.021208394318819046,0.014880156144499779,-0.0569269098341465,0.062050819396972656,-0.005404469557106495,0.026018602773547173,0.017039118334650993,0.006727740168571472,0.030158845707774162,0.03917206823825836,-0.13406379520893097,-0.057215142995119095,0.050095777958631516,0.069426991045475,0.06265377253293991,0.10649944096803665,0.023963719606399536,-0.029431087896227837,0.020443828776478767,-0.02293119579553604,-0.06862679868936539,-0.03766683116555214,-0.09224075824022293,0.10864956676959991,0.04934927448630333,0.010802707634866238,0.03196309134364128,0.010976431891322136,-0.05101257935166359,-0.019015071913599968,-0.04541425034403801,-0.04297536611557007,0.04586159437894821,0.04636966437101364,-0.018774060532450676,-0.022130263969302177,-0.021401332691311836,-0.0010226654121652246,0.03240877017378807,-0.004657768178731203,-0.007523202337324619,-0.04436267539858818,-0.001794964075088501,-0.07310616970062256,0.012610223144292831,-0.08818384259939194,-0.029231993481516838,0.020743338391184807,0.015539033338427544,-0.020726215094327927,0.1309959888458252,-0.013439640402793884,0.012362983077764511,-0.0239888746291399,0.07516910880804062,0.02792472578585148,-0.08578269183635712,0.005492985248565674,-0.009556124918162823,0.041925426572561264,-0.033620063215494156,-0.009132140316069126,-0.06803248077630997,-0.0037254667840898037,-0.039361581206321716,0.02742207981646061,-0.06666207313537598,-0.08925548940896988,-0.05120788514614105,0.026822639629244804,0.018125411123037338,-0.03306691721081734,0.029423795640468597,0.012541373260319233,-0.029146671295166016,0.03242388740181923,0.04574532061815262,-0.06630346924066544,0.0018701122608035803,0.040885087102651596,0.030026793479919434,-0.0026508637238293886,-0.00603641290217638,0.0014579896815121174,-0.040297701954841614,-0.03102441504597664,0.0529201477766037,0.04251820594072342,-0.05170760676264763,0.07184985280036926,-0.030467048287391663,-0.04415130615234375,-0.04528176784515381,-0.08475039899349213,-0.07260240614414215,-0.05497509241104126,0.006836422719061375,0.044643450528383255,0.03707626461982727,0.07117298245429993,0.011142522096633911,-0.0538749024271965,0.062168706208467484,-0.052476610988378525,0.004380194004625082,0.0022264786530286074,-0.08326748013496399,-0.01801401562988758,0.02034291811287403,-0.09151492267847061,-0.02256195619702339,0.00883236713707447,0.056609444320201874,-0.06901823729276657,-0.03566911444067955,0.004524483811110258,-0.0710674449801445,-0.0645030289888382,0.01676507294178009,-0.01399959810078144,-0.04120996221899986,-0.0014271833933889866,-0.04414379596710205,-0.00500701367855072,0.04384223744273186,0.034189242869615555,0.026418371126055717,5.650855018757284e-05,0.03571023792028427,-0.012939142994582653,-0.03490379825234413,0.03663840889930725,-0.020334428176283836,-0.019506141543388367,-0.06839267909526825,-0.0578346811234951,0.043579015880823135,0.05757953226566315,-0.05030214041471481,0.01190931349992752,0.028173508122563362,-0.025992050766944885,-0.04842260479927063,-0.009752118028700352,-0.03433161601424217,-0.022633692249655724,-0.03266970068216324,0.10597096383571625,-0.007155829109251499,0.02395934797823429,-0.10616648942232132,0.0021778885275125504,0.06615668535232544,0.020577844232320786,-0.07240787148475647,-0.026951178908348083,-0.01316992286592722,0.03778526186943054,-0.03189704194664955,0.010756985284388065,0.05637344345450401,-0.011111658997833729,0.034486401826143265,-0.010901518166065216,-0.015584754757583141,-0.01384152565151453,0.022080212831497192,-0.03632930666208267,0.0171859972178936,0.03995596244931221,0.06720972806215286,-0.012023819610476494,-0.005678820889443159,-0.046200647950172424,0.0841917172074318,0.0037835591938346624,0.05800190567970276,-0.005886222701519728,0.010475236922502518,-0.09605555981397629,-0.024496257305145264,0.025407571345567703,0.014444760046899319,0.048950035125017166,-0.010034201666712761,-0.048154186457395554,0.008907873183488846,0.05833633989095688,0.06031562015414238,0.09757759422063828,0.05120648071169853,-0.0342879518866539,0.014315289445221424,-0.020845705643296242,-0.08488678932189941,-0.07536635547876358,-0.059245649725198746,-0.012361282482743263,-0.036380790174007416,0.004430634435266256,0.04021843150258064,0.1319023221731186,-0.013013173826038837,-0.05010310187935829,-0.08195405453443527,-0.0046157524921,0.008979538455605507,0.08859959244728088,0.08241795748472214,0.02458140440285206,0.07052313536405563,-0.04328500106930733,-0.0636012852191925,-0.06334605067968369,-0.04910774901509285,-0.010829318314790726,0.008291290141642094,-0.04126270115375519,-0.015748273581266403,0.07077837735414505,0.010967244394123554,0.0131393326446414,-0.11023808270692825,-0.004205541219562292,0.024255776777863503,0.06072603166103363,-0.11202998459339142,0.04783014580607414,-0.11361035704612732,0.01121013704687357,-0.06277745962142944,-0.04676634073257446,0.027245476841926575,-0.036656711250543594,0.03551199287176132,-0.009701917879283428
moonlight-2016,0.03905704617500305,0.03774653747677803,-0.0008875326602719724,0.08337660133838654,-0.04904966801404953,0.022359736263751984,0.06750699132680893,-0.03674982860684395,0.08482339978218079,0.072647824883461,-0.017511706799268723,-0.10991062223911285,-0.015270590782165527,0.03905332088470459,-0.08120312541723251,0.09014188498258591,0.06104671210050583,0.11356157064437866,-0.010599122382700443,-0.06469777971506119,-0.01432829163968563,0.06890805065631866,0.03114280290901661,0.002117808209732175,0.057755351066589355,-0.05367695167660713,-0.04831136390566826,0.05249917879700661,0.03196932002902031,-0.004214329179376364,-0.05904357135295868,-0.0035141054540872574,-0.029614999890327454,0.007667746860533953,0.044483084231615067,-0.015970245003700256,0.046574223786592484,0.010152360424399376,0.019084444269537926,0.07984236627817154,0.11093723773956299,-0.04188736528158188,0.06960555911064148,0.023266581818461418,-0.038796842098236084,-0.029390476644039154,-0.050424229353666306,-0.007468324154615402,0.04909672960639,0.010699438862502575,-0.05816477909684181,0.039609842002391815,-0.03992840647697449,-0.01869289204478264,0.024519646540284157,0.0023659588769078255,-0.025537122040987015,-0.08623208850622177,0.01874544844031334,-0.05532452464103699,-0.009719684720039368,0.11755545437335968,-0.07103142142295837,-0.06281976401805878,-0.021277694031596184,0.0072350953705608845,-0.05528147518634796,0.05492628365755081,-0.009071075357496738,0.03916586935520172,0.023520207032561302,0.0064023155719041824,0.03299073129892349,0.038538504391908646,-0.13314397633075714,-0.04373757168650627,0.057477522641420364,0.06958127021789551,0.0627598911523819,0.1092226654291153,0.014527824707329273,-0.026696253567934036,0.021220732480287552,-0.018016764894127846,-0.06005004793405533,-0.03928012400865555,-0.09483876824378967,0.11022767424583435,0.04219914972782135,0.010933971963822842,0.04507604241371155,0.016634734347462654,-0.06468299776315689,-0.012885979376733303,-0.02907056361436844,-0.04277489706873894,0.05600598081946373,0.039536722004413605,-0.024142490699887276,-0.03241598606109619,-0.03455938398838043,0.007033943198621273,0.03170943632721901,-0.01365856546908617,-0.0019202649127691984,-0.034505825489759445,-0.015053275041282177,-0.07095851004123688,0.018900137394666672,-0.08106565475463867,-0.03832769766449928,0.0030482460279017687,0.01332040037959814,-0.024450382217764854,0.12861549854278564,-0.017314769327640533,0.02250322699546814,-0.030213288962841034,0.08332750201225281,0.027433739975094795,-0.08223089575767517,0.008293603546917439,-0.013203331269323826,0.04525303095579147,-0.02913190796971321,-0.024408714845776558,-0.07042267918586731,-0.0013782334281131625,-0.030443081632256508,0.01993839628994465,-0.07133740931749344,-0.09230460971593857,-0.049664318561553955,0.026794109493494034,0.02132127620279789,-0.03834632784128189,0.03201795741915703,0.007299551274627447,-0.012844656594097614,0.03810923174023628,0.05858546122908592,-0.06752341985702515,-0.0030087423510849476,0.04409874975681305,0.032276369631290436,-0.005057679954916239,-0.002726631937548518,-0.002497542416676879,-0.04592379182577133,-0.03676360845565796,0.05563368648290634,0.028015339747071266,-0.05562489479780197,0.0638168603181839,-0.024567358195781708,-0.048632655292749405,-0.04341308772563934,-0.08234596252441406,-0.07113244384527206,-0.049918320029973984,0.004213258624076843,0.04153267294168472,0.042798805981874466,0.07124996185302734,0.00649990513920784,-0.059561848640441895,0.06703408062458038,-0.05662853270769119,-0.014148321002721786,0.005043676123023033,-0.09312450885772705,-0.01680612377822399,0.016267621889710426,-0.08601509034633636,-0.016072602942585945,0.010187962092459202,0.06116655468940735,-0.09103786945343018,-0.043104518204927444,-0.008781871758401394,-0.07481185346841812,-0.05751708149909973,0.007111979182809591,-0.02205980196595192,-0.03752594068646431,-0.010437540709972382,-0.04403640329837799,0.005302099045366049,0.04649922996759415,0.04337862506508827,0.028211548924446106,-0.00022615445777773857,0.0322226919233799,-0.010161117650568485,-0.01792849972844124,0.033853642642498016,-0.0184506606310606,-0.02834847755730152,-0.05226258933544159,-0.050323236733675,0.05410923808813095,0.05720142275094986,-0.060817647725343704,0.004202730488032103,0.019702456891536713,-0.022487729787826538,-0.034813251346349716,-0.014199613593518734,-0.03381437063217163,-0.012100514024496078,-0.02630831114947796,0.09942644834518433,-0.02010398730635643,0.033348448574543,-0.11026345938444138,0.01089726947247982,0.06688963621854782,0.015316960401833057,-0.07213519513607025,-0.03244062885642052,-0.009100701659917831,0.04092281311750412,-0.03380706161260605,0.019775323569774628,0.04970555007457733,-0.025198761373758316,0.03673272207379341,-0.0067541650496423244,-0.010393192060291767,-0.00679804990068078,0.014301607385277748,-0.0451076403260231,-0.001997274812310934,0.05467042699456215,0.06982622295618057,-0.009747660718858242,-0.005078495480120182,-0.053052209317684174,0.09301698207855225,0.007482859771698713,0.0597260519862175,-0.006890454795211554,0.009143432602286339,-0.08006347715854645,-0.017395395785570145,0.024246400222182274,0.017356455326080322,0.06201445311307907,-0.01593519002199173,-0.04519661143422127,-0.004350991453975439,0.06569404900074005,0.055360496044158936,0.09244886040687561,0.05826769024133682,-0.04399649426341057,0.00711091049015522,-0.022963859140872955,-0.07229141145944595,-0.07121380418539047,-0.0558479018509388,-0.006674234289675951,-0.038641057908535004,-0.0021090356167405844,0.03674757108092308,0.12634976208209991,-0.016883358359336853,-0.05172041803598404,-0.08324849605560303,-0.016688019037246704,0.007954958826303482,0.08572058379650116,0.06671208143234253,0.02767203561961651,0.07304984331130981,-0.03150324523448944,-0.0647401288151741,-0.07768234610557556,-0.05536489933729172,0.008841066621243954,-0.0005522803403437138,-0.034462012350559235,-0.00922063272446394,0.06526809930801392,0.012893054634332657,0.01259643491357565,-0.1036895290017128,-0.010287405923008919,0.023428799584507942,0.05080485716462135,-0.09775923937559128,0.03762474283576012,-0.10760881751775742,0.013187230564653873,-0.054756272584199905,-0.039912592619657516,0.03283502906560898,-0.0411948636174202,0.025953778997063637,-0.0030043553560972214
pans-labyrinth,0.055011287331581116,0.03333568572998047,0.00441837077960372,0.08803995698690414,-0.037435851991176605,0.027787858620285988,0.06682420521974564,-0.05099925771355629,0.08483217656612396,0.08687359094619751,-0.009961447678506374,-0.12355992197990417,-0.026299312710762024,0.02919156104326248,-0.07074758410453796,0.09307176619768143,0.06474407017230988,0.10010875761508942,-0.0069242860190570354,-0.06356919556856155,-0.005543155129998922,0.08843093365430832,0.03908510506153107,-0.007049397565424442,0.057023365050554276,-0.03899271413683891,-0.04251749441027641,0.06371252238750458,0.03985433280467987,-0.016449425369501114,-0.08039702475070953,0.008958179503679276,-0.02318269945681095,0.027403827756643295,0.038826677948236465,-0.012058448977768421,0.0414176806807518,0.009816784411668777,0.0008903577690944076,0.08762811869382858,0.1260097622871399,-0.03653930127620697,0.07966085523366928,0.021674728021025658,-0.0213778018951416,-0.02189973182976246,-0.033484652638435364,0.004105544649064541,0.05658775568008423,0.012361010536551476,-0.07749193906784058,0.0683862641453743,-0.03662267327308655,0.008203635923564434,0.01734139956533909,-0.005549388471990824,-0.018568813800811768,-0.10526815056800842,0.007484185975044966,-0.03696402162313461,-0.011264920234680176,0.10992076247930527,-0.05749094486236572,-0.0642111599445343,-0.036367472261190414,0.00050750543596223,-0.04174526035785675,0.056464601308107376,-0.009396891109645367,0.03565410152077675,0.02532234415411949,0.012275907211005688,0.0363323837518692,0.03984980657696724,-0.1307891607284546,-0.05250886082649231,0.05660713091492653,0.06978078931570053,0.061891764402389526,0.09704887121915817,0.025363996624946594,-0.026184378191828728,0.008175943046808243,-0.02798715978860855,-0.062380921095609665,-0.0426655039191246,-0.10437063872814178,0.11675821244716644,0.054146286100149155,0.013120410963892937,0.021420041099190712,0.01842963695526123,-0.06226144731044769,-0.01916930265724659,-0.05013791099190712,-0.033542707562446594,0.05655650421977043,0.0425238274037838,-0.018021373078227043,-0.02556576207280159,-0.02661464922130108,0.01904682256281376,0.022610703483223915,-0.02151682786643505,-0.0030877995304763317,-0.02368631400167942,0.0012015241663902998,-0.08542386442422867,-0.015081492252647877,-0.09756841510534286,-0.02250567451119423,0.055418867617845535,0.008279716596007347,-0.011878843419253826,0.14585041999816895,-0.022362828254699707,-0.007384339813143015,-0.04320860654115677,0.07817284762859344,0.03381649777293205,-0.08887424319982529,0.012447361834347248,0.024631358683109283,0.03723974525928497,-0.03075125813484192,0.0020050518214702606,-0.07697046548128128,0.00822531059384346,-0.030089495703577995,0.027544958516955376,-0.08173566311597824,-0.06283228099346161,-0.05436062067747116,0.023898351937532425,0.04051104933023453,-0.024275045841932297,0.01912825182080269,0.007447447627782822,-0.024633441120386124,0.040137533098459244,0.057569656521081924,-0.06255080550909042,-0.0033496685791760683,0.06430118530988693,0.032987140119075775,0.000806562602519989,0.0150853730738163,0.011196642182767391,-0.04794171825051308,-0.039915964007377625,0.07263024151325226,0.04918430373072624,-0.046427808701992035,0.08440262824296951,-0.036861352622509,-0.051186125725507736,-0.03602183982729912,-0.08574428409337997,-0.08180291950702667,-0.0672249123454094,-0.0040169632993638515,0.029022112488746643,0.034001342952251434,0.05815926194190979,0.010931051336228848,-0.07299083471298218,0.07106616348028183,-0.07275044918060303,-0.029281048104166985,0.012338342145085335,-0.08225389569997787,-0.006933826021850109,0.013589520938694477,-0.09134029597043991,-0.027189025655388832,0.021074434742331505,0.061032332479953766,-0.08341263234615326,-0.049019623547792435,-0.014811479486525059,-0.08190780878067017,-0.07083867490291595,0.021155083552002907,-0.029651369899511337,-0.04808549955487251,-0.011408657766878605,-0.04165399447083473,-0.01780438795685768,0.03500285744667053,0.02761814184486866,0.008742203935980797,0.008829021826386452,0.05282249301671982,-0.01911740005016327,-0.02487829327583313,0.04495750740170479,-0.023103777319192886,-0.01691882126033306,-0.07828090339899063,-0.07032499462366104,0.06913339346647263,0.06928408890962601,-0.06420231610536575,-0.006879167165607214,0.022283492609858513,-0.013671825639903545,-0.05420453101396561,-0.00839450117200613,-0.053594060242176056,-0.01530257984995842,-0.05135117843747139,0.11905074864625931,-0.00622208695858717,0.01605735719203949,-0.11377833783626556,0.007931794039905071,0.06091668829321861,0.019603939726948738,-0.07658631354570389,-0.03273744136095047,-0.0020724020432680845,0.04988347738981247,-0.03699343651533127,0.010940324515104294,0.04649142548441887,0.0014561928110197186,0.02462461031973362,-0.010656763799488544,-0.01961282081902027,-0.009989556856453419,0.013202453032135963,-0.03870612755417824,0.009954988956451416,0.05822720378637314,0.07651901990175247,-0.002244623377919197,-0.010571161285042763,-0.022846834734082222,0.09541565924882889,-0.010602016001939774,0.05925731360912323,-0.021140258759260178,-0.0021093259565532207,-0.08895985782146454,-0.015174968168139458,0.03707011416554451,0.02908555418252945,0.03789348900318146,-0.015072055160999298,-0.05417025834321976,-0.0018511554226279259,0.050466012209653854,0.07582315802574158,0.11986098438501358,0.06403859704732895,-0.05880564823746681,-0.006257548462599516,-0.03617781773209572,-0.07421167194843292,-0.09168810397386551,-0.055676572024822235,-0.0071066576056182384,-0.0483674481511116,0.005041632801294327,0.026729706674814224,0.14760605990886688,-0.014177786186337471,-0.05032480135560036,-0.07324086129665375,0.0023687032517045736,0.010433931834995747,0.1082216128706932,0.05386267974972725,0.03033822774887085,0.08300615102052689,-0.02156943269073963,-0.04707080125808716,-0.06659571081399918,-0.04778372123837471,0.02417454682290554,0.006511600222438574,-0.02339467965066433,-0.03022499941289425,0.05887582525610924,0.02506273239850998,0.011790015734732151,-0.1183122992515564,-0.016934910789132118,0.0013854095013812184,0.0811963751912117,-0.11167506873607635,0.043893590569496155,-0.10477674007415771,0.022402433678507805,-0.057289816439151764,-0.06166137382388115,0.025641968473792076,-0.054190270602703094,0.038823965936899185,-0.006779450457543135
4-months-3-weeks-and-2-days,0.04196634143590927,0.03162848949432373,0.0012171893613412976,0.0770149976015091,-0.053344015032052994,0.013016406446695328,0.0620420016348362,-0.04775705933570862,0.09113915264606476,0.08291217684745789,-0.01912706345319748,-0.12156233936548233,-0.031508851796388626,0.04628251492977142,-0.07023888826370239,0.09417681396007538,0.0714709535241127,0.10358266532421112,-0.01468036137521267,-0.0714481994509697,0.0034122751094400883,0.07757878303527832,0.029333064332604408,-0.0036387082654982805,0.06081205978989601,-0.05265713483095169,-0.04609864205121994,0.04318702220916748,0.03483887016773224,0.0020682034082710743,-0.06051930412650108,-0.001879152492620051,-0.030474990606307983,0.006390542257577181,0.04128744453191757,-0.017120743170380592,0.027477744966745377,0.020921869203448296,0.016212545335292816,0.06679246574640274,0.1161644235253334,-0.03620472922921181,0.07289402931928635,0.001869651023298502,-0.04000858590006828,-0.01010221429169178,-0.042945753782987595,0.011613383889198303,0.04441438987851143,0.01689380779862404,-0.06599105149507523,0.03255004435777664,-0.0503150150179863,0.00770455040037632,0.0159591156989336,0.010732107795774937,-0.03815237432718277,-0.0816098004579544,0.022176871076226234,-0.049405649304389954,-0.012891660444438457,0.09957989305257797,-0.07495065033435822,-0.07304773479700089,-0.025162668898701668,0.011532386764883995,-0.044407106935977936,0.06557801365852356,-0.006376665085554123,0.03497672453522682,0.012861563824117184,0.006110579241067171,0.04198262095451355,0.044098030775785446,-0.14080001413822174,-0.05860920622944832,0.06456316262483597,0.08494294434785843,0.061239905655384064,0.11090779304504395,0.01946394331753254,-0.02717231959104538,0.017264634370803833,-0.01848364621400833,-0.05779851973056793,-0.04337732493877411,-0.10016012191772461,0.10648465156555176,0.028674762696027756,0.010320436209440231,0.02246939204633236,0.015757370740175247,-0.052900854498147964,-0.006178796291351318,-0.04507679492235184,-0.03288140147924423,0.0542084239423275,0.046008091419935226,-0.014555467292666435,-0.026441534981131554,-0.028859857469797134,8.866376447258517e-05,0.03055715002119541,-0.013093488290905952,0.0018972604302689433,-0.038763377815485,-0.009323948994278908,-0.07922231405973434,0.011525453999638557,-0.08581143617630005,-0.022380677983164787,0.012395214289426804,0.008692904375493526,-0.021663745865225792,0.11393412202596664,-0.014530251733958721,0.022017449140548706,-0.03187715262174606,0.08391445130109787,0.04241161420941353,-0.09198451042175293,0.011128568090498447,-0.005239394493401051,0.03633216768503189,-0.035420216619968414,-0.00462079094722867,-0.06931456178426743,-0.012546250596642494,-0.02449662797152996,0.0268363319337368,-0.0631524845957756,-0.08706812560558319,-0.0567038469016552,0.01652958244085312,0.022345583885908127,-0.04650294780731201,0.029975581914186478,0.006391983479261398,-0.025765500962734222,0.04294585809111595,0.0432795025408268,-0.057537224143743515,-0.004117016214877367,0.04245549812912941,0.014571613632142544,-0.0077439784072339535,-0.012635599821805954,0.0031316045206040144,-0.03670642524957657,-0.026201236993074417,0.06518587470054626,0.04014790803194046,-0.03818434849381447,0.06744489818811417,-0.022020554170012474,-0.03462597727775574,-0.05170430615544319,-0.0772155225276947,-0.05373840034008026,-0.04186509549617767,-0.011816581711173058,0.045878615230321884,0.04136691987514496,0.05244068428874016,0.018473433330655098,-0.06682417541742325,0.04948350414633751,-0.0654425099492073,-0.01902800053358078,0.00048346270341426134,-0.09460419416427612,-0.0039435019716620445,0.018098434433341026,-0.09758250415325165,-0.01642979495227337,0.0051666670478880405,0.0665622428059578,-0.06761908531188965,-0.034132517874240875,-0.028362000361084938,-0.07189396768808365,-0.06224217638373375,0.015968764200806618,-0.018064893782138824,-0.04498808830976486,-0.000449398037744686,-0.038109634071588516,-0.003013089532032609,0.022431356832385063,0.04564721882343292,0.021412648260593414,0.002877959981560707,0.046672411262989044,-0.010707847774028778,-0.026788273826241493,0.028195254504680634,-0.01928763836622238,-0.023328643292188644,-0.053922198712825775,-0.04621264711022377,0.044632524251937866,0.06647177785634995,-0.06567234545946121,0.006679770536720753,0.021735219284892082,-0.02042022906243801,-0.03510698676109314,-0.006833372637629509,-0.03465449437499046,-0.030406076461076736,-0.035329293459653854,0.10051974654197693,-0.004683022387325764,0.028134122490882874,-0.11750710755586624,0.0031029158271849155,0.061489537358284,0.02055199444293976,-0.07001913338899612,-0.03174808993935585,-0.002380967838689685,0.03798101469874382,-0.046038564294576645,0.01878073811531067,0.04975707083940506,-0.014278033748269081,0.04742690920829773,-0.0009966813959181309,0.0013228876050561666,-0.00550100626423955,0.020973168313503265,-0.0422542430460453,0.022360237315297127,0.04013008251786232,0.07356290519237518,-0.01064489595592022,-0.004965910222381353,-0.04759242758154869,0.08118550479412079,-0.002745172707363963,0.051650092005729675,-0.015779120847582817,0.016740016639232635,-0.0794772356748581,-0.01795942708849907,0.023519691079854965,0.02096395380795002,0.04434854909777641,-0.004045433364808559,-0.045412685722112656,0.00395651301369071,0.045719217509031296,0.057086434215307236,0.10401607304811478,0.05579069256782532,-0.03245025500655174,0.01293821632862091,-0.016076570376753807,-0.06292486935853958,-0.0682375505566597,-0.054303377866744995,0.002606583060696721,-0.03871180862188339,0.01013642456382513,0.03453047573566437,0.13465988636016846,-0.019311387091875076,-0.059055425226688385,-0.07979430258274078,-0.012414837256073952,0.014131268486380577,0.08478321135044098,0.06238960847258568,0.024783149361610413,0.0649871677160263,-0.03551744669675827,-0.0519854836165905,-0.0699775218963623,-0.043781932443380356,0.012181568890810013,0.0035309840459376574,-0.027284925803542137,-0.00949180219322443,0.06465500593185425,0.014963545836508274,0.011110266670584679,-0.10255611687898636,-0.008919132873415947,0.0189172625541687,0.06128224730491638,-0.10278429090976715,0.02503572776913643,-0.09780111163854599,0.027046440169215202,-0.06005584076046944,-0.03737678378820419,0.02686093933880329,-0.03469060733914375,0.03265821933746338,0.0009395075030624866
12-years-a-slave,0.0463654100894928,0.04684815928339958,0.0029704496264457703,0.06787049025297165,-0.031877800822257996,0.018416987732052803,0.05613340809941292,-0.053061436861753464,0.08680954575538635,0.08423244953155518,-0.01094017457216978,-0.1176721602678299,-0.023451656103134155,0.046251408755779266,-0.06913916021585464,0.10432618111371994,0.06355015188455582,0.11189784854650497,-0.017635837197303772,-0.06370533257722855,-0.01114210207015276,0.06480355560779572,0.03243400156497955,-0.0004209952603559941,0.05315148085355759,-0.04616127163171768,-0.05312337353825569,0.04498681798577309,0.030169038102030754,-0.003735796781256795,-0.0515693761408329,0.006313304416835308,-0.034628789871931076,0.01560799591243267,0.04012094810605049,-0.006190980318933725,0.044590651988983154,0.024470210075378418,0.016503218561410904,0.07082387059926987,0.11323339492082596,-0.03166597709059715,0.07730167359113693,0.01067078486084938,-0.0294160358607769,-0.025984948500990868,-0.05530165880918503,0.01003778725862503,0.047451239079236984,0.003927892539650202,-0.05332767963409424,0.03972833976149559,-0.04102879390120506,-0.005140448920428753,0.013111470267176628,0.0025462082121521235,-0.03650927171111107,-0.08835816383361816,0.009022482670843601,-0.06150886416435242,-0.008723794482648373,0.11314807087182999,-0.08011601865291595,-0.06655237823724747,-0.025413576513528824,-0.003167434362694621,-0.053161025047302246,0.0617845356464386,-0.008522603660821915,0.027718091383576393,0.013926626183092594,0.017022935673594475,0.03544497862458229,0.04582726210355759,-0.11846156418323517,-0.05543462187051773,0.06915822625160217,0.07565673440694809,0.06037459895014763,0.08337322622537613,0.016422215849161148,-0.015659241005778313,0.01523028127849102,-0.029369007796049118,-0.06264554709196091,-0.039632879197597504,-0.0971229299902916,0.10323366522789001,0.040137551724910736,0.013477228581905365,0.026204433292150497,0.017014767974615097,-0.051110465079545975,-0.0035153741482645273,-0.03227768465876579,-0.035542260855436325,0.05720756575465202,0.05102623999118805,-0.004195505287498236,-0.03096579574048519,-0.02730385772883892,0.007624038960784674,0.023850105702877045,-0.026240281760692596,-0.0031752123031765223,-0.037048596888780594,-0.01021513994783163,-0.07841237634420395,-0.0064810412004590034,-0.07659852504730225,-0.03159400448203087,0.022590262815356255,0.01591590605676174,-0.014422792010009289,0.11874276399612427,-0.01941564679145813,0.016453374177217484,-0.032970041036605835,0.08064322918653488,0.02982245199382305,-0.0890873521566391,0.009611261077225208,0.00012586184311658144,0.025003839284181595,-0.032616790384054184,-0.010707234963774681,-0.071473628282547,-0.00570697570219636,-0.02165338397026062,0.030954087153077126,-0.06686227023601532,-0.07305844873189926,-0.05468396097421646,0.02029355615377426,0.012804745696485043,-0.03535618633031845,0.01635289192199707,0.007714237552136183,-0.024072667583823204,0.030718505382537842,0.05080754682421684,-0.05850917845964432,0.0048589399084448814,0.033754054456949234,0.016301242634654045,-0.011429517529904842,0.001643331372179091,0.012006676755845547,-0.037328146398067474,-0.028018025681376457,0.06417930126190186,0.025990212336182594,-0.03803607076406479,0.0742102712392807,-0.02372903935611248,-0.0479150228202343,-0.053960420191287994,-0.07034839689731598,-0.053197503089904785,-0.06549429148435593,0.0029262492898851633,0.041215699166059494,0.04468110576272011,0.05522286146879196,0.01192430779337883,-0.05678028613328934,0.06301189213991165,-0.06278099864721298,-0.017324868589639664,0.007933354005217552,-0.08199980109930038,-0.00041124719427898526,0.017467420548200607,-0.1025637835264206,-0.007633217144757509,-0.0008352681179530919,0.05806059017777443,-0.08957089483737946,-0.02189650386571884,-0.017457544803619385,-0.07966696470975876,-0.05602140352129936,0.003772189375013113,-0.016363155096769333,-0.04317843168973923,0.007651801221072674,-0.03690514340996742,-0.01402173563838005,0.041678834706544876,0.04518667235970497,0.01909681409597397,0.014189711771905422,0.03488485515117645,-0.01441400870680809,-0.03478224202990532,0.033744048327207565,-0.015881584957242012,-0.025289438664913177,-0.059503667056560516,-0.04092317447066307,0.050974465906620026,0.060510434210300446,-0.04200506955385208,-0.00030457531102001667,0.024236956611275673,-0.013076594099402428,-0.03833606839179993,0.00018069756333716214,-0.03991556167602539,-0.012673635967075825,-0.025529731065034866,0.1033572405576706,-0.002191718202084303,0.028884923085570335,-0.10278604924678802,0.011524940840899944,0.058400146663188934,0.010509735904633999,-0.06636402755975723,-0.02807547338306904,-0.008333055302500725,0.04122200235724449,-0.030224502086639404,0.007967665791511536,0.04811940714716911,-0.017205148935317993,0.04690587520599365,0.0024683682713657618,-0.007069502491503954,-0.01552545465528965,0.017074214294552803,-0.05415251851081848,0.008504917845129967,0.055775467306375504,0.05273076146841049,-0.014546201564371586,-0.002452799119055271,-0.042143333703279495,0.08346910774707794,-0.013386527076363564,0.06713729351758957,-0.020324012264609337,0.019817175343632698,-0.08797628432512283,-0.014668909832835197,0.022385908290743828,0.011225631460547447,0.0536070317029953,-0.014708728529512882,-0.04353320598602295,0.008888768963515759,0.0711708515882492,0.043744511902332306,0.0813102051615715,0.06357748806476593,-0.05477678403258324,0.01478175912052393,-0.02987530082464218,-0.06143428012728691,-0.06922022998332977,-0.0559639111161232,0.00023988995235413313,-0.02475259266793728,0.009347796440124512,0.028075924143195152,0.13067598640918732,-0.013181542046368122,-0.04690142720937729,-0.06999576836824417,-0.01569347269833088,0.009320580400526524,0.08624683320522308,0.05707433447241783,0.022563589736819267,0.08274029940366745,-0.0344565324485302,-0.06100653484463692,-0.059877026826143265,-0.07225079834461212,0.015548041090369225,-0.01164780743420124,-0.033501237630844116,-0.010829647071659565,0.05592244118452072,0.008561176247894764,0.01835271343588829,-0.10372556746006012,-0.000535483006387949,0.028400873765349388,0.04396399110555649,-0.11041992902755737,0.03634446859359741,-0.10806746780872345,0.03467121720314026,-0.05518725514411926,-0.043821435421705246,0.01792566105723381,-0.037474844604730606,0.0357448011636734,-0.0020159424748271704
manchester-by-the-sea,0.044577691704034805,0.04154280200600624,-0.006518780253827572,0.07500047981739044,-0.036824315786361694,0.01986582949757576,0.061370477080345154,-0.055323898792266846,0.08500731736421585,0.0787004753947258,-0.016350269317626953,-0.10936743766069412,-0.01965382695198059,0.042331498116254807,-0.06999918073415756,0.08451858162879944,0.06698548048734665,0.12023744732141495,-0.005028894171118736,-0.070430226624012,-0.012964421883225441,0.07828761637210846,0.030636532232165337,0.003381861373782158,0.06336219608783722,-0.054327592253685,-0.04560592398047447,0.04423430562019348,0.02383001148700714,0.0007738468702882528,-0.06484261155128479,-0.000858151528518647,-0.028956906870007515,0.0036352453753352165,0.049021001905202866,-0.01727955974638462,0.04650038853287697,0.024200258776545525,0.016484437510371208,0.07764804363250732,0.11456584930419922,-0.04322286322712898,0.07293202728033066,0.01099984161555767,-0.024908781051635742,-0.020618394017219543,-0.05078011751174927,0.010737583972513676,0.05551847442984581,0.009116933681070805,-0.05914272740483284,0.04764329642057419,-0.04542288929224014,0.0031207348220050335,0.026110928505659103,0.0009126808727160096,-0.03375678136944771,-0.08153028786182404,0.022101720795035362,-0.058192282915115356,-0.018654365092515945,0.11153387278318405,-0.07291813939809799,-0.06808293610811234,-0.017965873703360558,0.015014474280178547,-0.04846107214689255,0.05977344140410423,-0.010154545307159424,0.037910059094429016,0.019996551796793938,-0.008952345699071884,0.03737196698784828,0.03705229237675667,-0.13691020011901855,-0.056851617991924286,0.05774926394224167,0.06611070781946182,0.06613029539585114,0.09778692573308945,0.020950013771653175,-0.018306564539670944,0.021320568397641182,-0.03126569092273712,-0.05159337446093559,-0.041451383382081985,-0.0980362594127655,0.10403872281312943,0.03354466333985329,0.010563618503510952,0.03637764975428581,0.015253339894115925,-0.05849342793226242,-0.0019201124086976051,-0.039144426584243774,-0.04368562996387482,0.05523126199841499,0.04892818257212639,-0.028203152120113373,-0.03895602002739906,-0.03478575870394707,0.009701498784124851,0.03271535038948059,-0.015531491488218307,-0.004119576420634985,-0.04361114278435707,-0.003672802122309804,-0.07478004693984985,0.0147711718454957,-0.06463797390460968,-0.03289208933711052,0.009391369298100471,0.024832334369421005,-0.02898487262427807,0.12514224648475647,-0.019764576107263565,0.023911289870738983,-0.026391902938485146,0.0885697677731514,0.03646562620997429,-0.08764459192752838,0.009677384048700333,-0.0038232682272791862,0.032459408044815063,-0.035499587655067444,-0.02011418342590332,-0.07090921700000763,-0.0034578090999275446,-0.027923090383410454,0.025243833661079407,-0.07199156284332275,-0.07781751453876495,-0.054471299052238464,0.02552589774131775,0.013036981225013733,-0.04276304319500923,0.032783154398202896,0.008337730541825294,-0.02952268160879612,0.042119525372982025,0.046489980071783066,-0.06384925544261932,-0.003862963058054447,0.031161120161414146,0.022283058613538742,-0.009752188809216022,-0.015892593190073967,0.007938546128571033,-0.047416239976882935,-0.027601661160588264,0.05094195529818535,0.03558555617928505,-0.03882736712694168,0.07577691227197647,-0.024788860231637955,-0.040081873536109924,-0.03388047590851784,-0.08007316291332245,-0.07376206666231155,-0.04885363206267357,-0.0018096824642270803,0.05608878657221794,0.054038647562265396,0.07512573152780533,0.009747657924890518,-0.06797344982624054,0.06156202405691147,-0.05732410028576851,-0.005617155693471432,0.00479542464017868,-0.08365384489297867,-0.017362920567393303,0.006353541277348995,-0.09558295458555222,-0.017562348395586014,0.012299967929720879,0.05677124485373497,-0.07880455255508423,-0.03972331061959267,-0.005121553782373667,-0.07688569277524948,-0.05132061988115311,0.023445388302206993,-0.015594490803778172,-0.047122128307819366,-0.010771531611680984,-0.03743753954768181,0.0029665566980838776,0.0483563058078289,0.039057645946741104,0.013995333574712276,0.008427882567048073,0.03997447341680527,-0.015122936107218266,-0.028910811990499496,0.03599915653467178,-0.012999583967030048,-0.023144423961639404,-0.054695770144462585,-0.04980235546827316,0.04083036631345749,0.05524197965860367,-0.07293170690536499,0.006455452647060156,0.03348515182733536,-0.026770958676934242,-0.048147592693567276,-0.004930215887725353,-0.03240546956658363,-0.015373331494629383,-0.02586555853486061,0.09499403089284897,-0.006844009272754192,0.034205950796604156,-0.10621646791696548,0.008725435473024845,0.06003228574991226,0.018110785633325577,-0.07622211426496506,-0.03211606666445732,-0.006934415083378553,0.03922378644347191,-0.0484330840408802,0.010593337938189507,0.04380646347999573,-0.022730523720383644,0.03501361235976219,-0.0159806776791811,-0.011123443953692913,-0.011338929645717144,0.01715654507279396,-0.033404640853405,0.0076850964687764645,0.050671108067035675,0.06374039500951767,-0.0142977861687541,-0.016107087954878807,-0.055154066532850266,0.08240977674722672,0.005190032534301281,0.052683327347040176,-0.003002111567184329,0.006907620467245579,-0.08842340111732483,-0.01587803289294243,0.030797116458415985,0.024602044373750687,0.049377117305994034,-0.010970961302518845,-0.051884353160858154,-0.002284877235069871,0.06427672505378723,0.058521490544080734,0.09986771643161774,0.05328433960676193,-0.05145695433020592,0.012269701808691025,-0.0177559033036232,-0.07599302381277084,-0.0646832212805748,-0.04726354777812958,0.0010822531767189503,-0.0332813486456871,0.010899621993303299,0.03311914578080177,0.12718573212623596,-0.00695800082758069,-0.04531339928507805,-0.07877666503190994,-0.01163123082369566,0.006483211647719145,0.07876204699277878,0.06389851868152618,0.023907048627734184,0.06996859610080719,-0.03427416831254959,-0.06450916081666946,-0.05751115828752518,-0.054900724440813065,0.006154229864478111,0.004428748041391373,-0.03975154459476471,-0.011367397382855415,0.0662311241030693,0.022675825282931328,0.017891565337777138,-0.09304219484329224,-0.0039592706598341465,0.02544413134455681,0.05507650598883629,-0.10357211530208588,0.036126166582107544,-0.10093110054731369,0.01606888696551323,-0.060807231813669205,-0.03290585055947304,0.03277285397052765,-0.04767666012048721,0.024833282455801964,-0.0021061901934444904
dr-strangelove-or-how-i-learned-to-stop-worrying-and-love-the-bomb,0.04085594043135643,0.027337439358234406,0.017108211293816566,0.09879503399133682,-0.036215707659721375,0.01091067772358656,0.06049323454499245,-0.04326660931110382,0.10698895901441574,0.06519051641225815,-0.008678269572556019,-0.10558321326971054,-0.007170510943979025,0.059272028505802155,-0.08717775344848633,0.08945108205080032,0.056135404855012894,0.09408579021692276,-0.020162377506494522,-0.07405655086040497,-0.011580203659832478,0.0740203931927681,0.05395092815160751,-0.005376526620239019,0.04759133979678154,-0.026155957952141762,-0.055268123745918274,0.061654455959796906,0.028491850942373276,0.0022534856107085943,-0.07696443796157837,0.002099514240399003,-0.024551700800657272,0.020087527111172676,0.060245148837566376,-0.0041942298412323,0.0496414490044117,0.013635995797812939,0.012906779535114765,0.07853633165359497,0.10784593224525452,-0.051201675087213516,0.07814554870128632,0.015278284437954426,-0.03641904145479202,-0.013327397406101227,-0.041298676282167435,0.004445190075784922,0.04919058084487915,0.013818208128213882,-0.09630512446165085,0.051552705466747284,-0.04486610367894173,0.0014130702475085855,0.02529328130185604,0.008869827724993229,-0.01611870713531971,-0.09201055765151978,0.014330313540995121,-0.03994074463844299,-0.012955754064023495,0.10460589826107025,-0.08144105970859528,-0.05030011758208275,-0.015915291383862495,0.009004811756312847,-0.05069037899374962,0.05126367136836052,-0.028426507487893105,0.04643264040350914,0.025356732308864594,0.009508182294666767,0.05525301769375801,0.04900973290205002,-0.1309783011674881,-0.06632047891616821,0.04593895003199577,0.07515548914670944,0.052323415875434875,0.1011420413851738,0.020016251131892204,-0.023441161960363388,0.02875841036438942,-0.02615605853497982,-0.05597608536481857,-0.05009836703538895,-0.10740747302770615,0.12107455730438232,0.03453533723950386,0.007453282363712788,0.014658523723483086,0.01074459683150053,-0.04608745872974396,-0.011822785250842571,-0.04643598571419716,-0.028621874749660492,0.05718556046485901,0.05629643052816391,-0.025873256847262383,-0.03756961226463318,-0.031241871416568756,0.007775356061756611,0.017664292827248573,-0.03084941953420639,-0.007849209941923618,-0.03197719156742096,-0.0004495650646276772,-0.0673828199505806,5.623764809570275e-05,-0.08327114582061768,-0.040520813316106796,0.007409045472741127,-0.004723760299384594,0.015470828860998154,0.12497468292713165,-0.015750987455248833,0.008850343525409698,-0.024186110123991966,0.07926253229379654,0.021727347746491432,-0.09292838722467422,0.01665468141436577,0.0010029984405264258,0.022758373990654945,-0.04266217350959778,-0.030675198882818222,-0.07113751769065857,-0.006612902972847223,-0.030769551172852516,0.016283804550766945,-0.06624690443277359,-0.09205487370491028,-0.0643623098731041,0.01809346303343773,0.013547318987548351,-0.04744309186935425,0.02958253026008606,0.007239157799631357,-0.009433377534151077,0.05422985926270485,0.06231117248535156,-0.06278859823942184,0.014822134748101234,0.03489367291331291,0.03281951695680618,-0.01376541517674923,0.0032389238476753235,-0.015423284843564034,-0.03575285151600838,-0.009670319966971874,0.05104921758174896,0.029428137466311455,-0.03856464847922325,0.06137053295969963,-0.03517359867691994,-0.06270357966423035,-0.03918188437819481,-0.06844247877597809,-0.062234219163656235,-0.07419796288013458,-0.016885988414287567,0.03446543589234352,0.048227470368146896,0.04386504739522934,0.013788973912596703,-0.0775073692202568,0.05725269019603729,-0.04628005996346474,-0.01967940852046013,0.03247891739010811,-0.06284413486719131,-0.012694018892943859,0.03531191870570183,-0.08605621755123138,-0.01701655611395836,0.0033388978336006403,0.04669356346130371,-0.09160615503787994,-0.04400445893406868,-0.012434120289981365,-0.05243358761072159,-0.054601192474365234,-0.0074919965118169785,-0.02933933027088642,-0.0398934967815876,-0.006794797722250223,-0.048617925494909286,-0.013552120886743069,0.04123486578464508,0.05557066574692726,0.004396619740873575,0.026696881279349327,0.042074110358953476,-0.001395085477270186,-0.03785669803619385,0.024644477292895317,-0.018685750663280487,-0.025660298764705658,-0.06234496459364891,-0.06627457588911057,0.035726726055145264,0.053303323686122894,-0.05553893372416496,0.041922714561223984,0.017176594585180283,-0.01053977757692337,-0.04356192424893379,0.008241741918027401,-0.07418803125619888,-0.010703465901315212,-0.02500149980187416,0.09249190241098404,0.000783367722760886,0.04514128714799881,-0.10954886674880981,0.0009076885762624443,0.05783012509346008,0.010736101306974888,-0.05820805951952934,-0.025269411504268646,-0.009942213073372841,0.031457092612981796,-0.025958018377423286,-7.804702181601897e-05,0.055328257381916046,0.009706757962703705,0.044547028839588165,-0.00764111801981926,-0.014346951618790627,-0.018301235511898994,0.007044992409646511,-0.03061358630657196,0.01137971505522728,0.045844364911317825,0.07282499969005585,-0.007485763635486364,0.015202089212834835,-0.036978740245103836,0.08889299631118774,-0.010513266548514366,0.07065749913454056,-0.009222184307873249,0.004181761294603348,-0.09197084605693817,-0.0033440820407122374,0.036982253193855286,0.014791329391300678,0.044218797236680984,-0.005636945366859436,-0.051080018281936646,-0.02258954755961895,0.054869867861270905,0.04522830620408058,0.1126604825258255,0.0607515387237072,-0.03542836382985115,-0.013326955959200859,-0.02316194586455822,-0.07473812997341156,-0.09586279094219208,-0.047512494027614594,-0.00430974829941988,-0.038249239325523376,0.0062192874029278755,0.03226512297987938,0.12672311067581177,-0.0268822330981493,-0.055085621774196625,-0.0752682164311409,0.0034912344999611378,0.0005570029024966061,0.09751472622156143,0.06460478901863098,0.03320072218775749,0.08013993501663208,-0.01876266673207283,-0.05671005696058273,-0.06631026417016983,-0.05738441273570061,0.021773995831608772,-0.005473276600241661,-0.01798289828002453,0.007608751300722361,0.06824057549238205,0.017488831654191017,0.010817673057317734,-0.09632464498281479,-0.005820817779749632,0.023146364837884903,0.0357896089553833,-0.07984772324562073,0.03186187148094177,-0.11702567338943481,0.029957827180624008,-0.053385064005851746,-0.06255858391523361,0.009122833609580994,-0.04112963005900383,0.029718821868300438,-0.007233174983412027
ratatouille,0.03456396982073784,0.022404614835977554,-0.0017117367824539542,0.11310257762670517,-0.04645556956529617,0.02047143690288067,0.06246844679117203,-0.038334593176841736,0.0750952661037445,0.08033883571624756,-0.011860315687954426,-0.11474187672138214,-0.007642814423888922,0.015400766395032406,-0.0797475054860115,0.08504574000835419,0.07180070132017136,0.10217311233282089,-0.02289162389934063,-0.0614120215177536,-0.010016960091888905,0.08648126572370529,0.06011432036757469,0.007183316629379988,0.054076600819826126,-0.05536259338259697,-0.04749210551381111,0.05813783034682274,0.04052207991480827,0.003610230516642332,-0.08232276886701584,0.016032623127102852,-0.021729128435254097,0.02205471508204937,0.050885554403066635,-0.017703354358673096,0.0487854890525341,0.021405214443802834,0.009927649982273579,0.09569340199232101,0.1234116479754448,-0.05975506454706192,0.07349900901317596,0.0410410612821579,-0.03476698696613312,-0.02055494114756584,-0.04053839296102524,0.011277667246758938,0.058708466589450836,0.025237634778022766,-0.07986631989479065,0.04481561854481697,-0.032386332750320435,0.008656620979309082,0.03342704847455025,0.018724961206316948,-0.0010274709202349186,-0.09476392716169357,0.02498951554298401,-0.046299345791339874,-0.022890988737344742,0.11583659052848816,-0.09244533628225327,-0.06925441324710846,-0.041569702327251434,-0.017124827951192856,-0.07532089203596115,0.04600253701210022,-0.015183260664343834,0.03850936517119408,0.030218573287129402,0.0069556282833218575,0.03285692632198334,0.0432472750544548,-0.1346302181482315,-0.044981975108385086,0.04479358345270157,0.059299223124980927,0.061259180307388306,0.1143551766872406,-0.007662011310458183,-0.028201278299093246,0.006843023933470249,-0.011967423371970654,-0.07180460542440414,-0.038662396371364594,-0.09715066850185394,0.13168540596961975,0.05527758598327637,0.013440149836242199,0.017879173159599304,0.018381090834736824,-0.07547760754823685,-0.01667702943086624,-0.04015278443694115,-0.03721391037106514,0.048854004591703415,0.041674014180898666,-0.0354669913649559,-0.02621331997215748,-0.0313989482820034,0.01735483855009079,0.021441899240016937,-0.01260556373745203,0.007373611442744732,-0.03236290067434311,0.0025158957578241825,-0.07368370145559311,0.009989154525101185,-0.09534410387277603,-0.03837398439645767,0.021922612562775612,0.01477397046983242,-0.017086252570152283,0.1623738408088684,-0.01979966089129448,0.01780935935676098,-0.05208459869027138,0.06409940123558044,0.01027737557888031,-0.09245063364505768,0.0011995685053989291,-0.014276843518018723,0.03880171850323677,-0.027471233159303665,-0.007619528565555811,-0.08096718788146973,-0.00047642659046687186,-0.03946864604949951,0.012414975091814995,-0.07659551501274109,-0.07968700677156448,-0.04840073734521866,0.03546613082289696,0.019703850150108337,-0.03449008986353874,0.029430702328681946,-0.0020715936552733183,-0.018296945840120316,0.035365618765354156,0.07494093477725983,-0.0684884637594223,0.007224115543067455,0.02913564443588257,0.025969021022319794,-0.023881450295448303,0.014100630767643452,0.004509455524384975,-0.02318461425602436,-0.026682283729314804,0.04702924191951752,0.04666862636804581,-0.05593951418995857,0.0761934295296669,-0.04396806284785271,-0.06496907025575638,-0.029623668640851974,-0.08017761260271072,-0.10339344292879105,-0.04873610660433769,-0.018074877560138702,0.05379418283700943,0.038144178688526154,0.08810880035161972,0.023507840931415558,-0.0718357190489769,0.07574927806854248,-0.05059508979320526,-0.019878752529621124,0.0048667313531041145,-0.09279415011405945,-0.01999998465180397,0.011789492331445217,-0.07516901195049286,-0.041874539107084274,0.04200461134314537,0.07290962338447571,-0.09084328263998032,-0.03886369243264198,-0.003954286687076092,-0.061933279037475586,-0.0814732238650322,0.012280493043363094,-0.026082614436745644,-0.026924235746264458,0.0021505129989236593,-0.0467098206281662,-0.017923923209309578,0.037408001720905304,0.03585197031497955,0.007639865390956402,0.007153167389333248,0.022126322612166405,-0.024820810183882713,-0.01345320325344801,0.03784184530377388,-0.023563189432024956,-0.029080737382173538,-0.0805191919207573,-0.07959210872650146,0.036532316356897354,0.057377882301807404,-0.0708819031715393,0.01036789920181036,0.01571064069867134,-0.02665763348340988,-0.05858210474252701,-0.009390072897076607,-0.055260661989450455,0.000749740342143923,-0.032497767359018326,0.11289750784635544,-0.01812967099249363,0.035098426043987274,-0.09159146249294281,0.03160208836197853,0.08240427076816559,0.007517022546380758,-0.07576467096805573,-0.036045465618371964,-0.009942424483597279,0.045811668038368225,-0.03146064281463623,0.015180131420493126,0.04097175598144531,-0.001340818009339273,0.018556008115410805,-0.012098747305572033,-0.010654558427631855,-0.004500462207943201,0.010403631255030632,-0.04605221748352051,0.017025234177708626,0.0501321479678154,0.0694735199213028,0.003730550641193986,0.004108430352061987,-0.04992762207984924,0.09629907459020615,0.013882676139473915,0.07266009598970413,-0.00825868546962738,0.0190819650888443,-0.0921514630317688,-0.021313628181815147,0.03594592213630676,0.026319339871406555,0.05343618988990784,-0.03329445794224739,-0.07008744031190872,-0.010870837606489658,0.06976611912250519,0.06983090937137604,0.09628728032112122,0.0573354996740818,-0.04867541417479515,-0.023250898346304893,-0.039001692086458206,-0.07491935789585114,-0.09336399286985397,-0.05172012001276016,0.009488750249147415,-0.04823410511016846,-0.00283395079895854,0.023154620081186295,0.12036137282848358,-0.034474123269319534,-0.06016809493303299,-0.07394669204950333,-0.01180570013821125,-0.0010877239983528852,0.09963031113147736,0.06895650923252106,0.02378793992102146,0.08158332854509354,-0.03848864138126373,-0.053791262209415436,-0.08651634305715561,-0.04648512601852417,-0.002158386865630746,-0.003487266832962632,-0.009383498691022396,-0.03034760244190693,0.08545349538326263,0.011297679506242275,0.02089069038629532,-0.10834666341543198,-0.024259623140096664,0.006932605057954788,0.06922563165426254,-0.09409166872501373,0.05676136165857315,-0.10713988542556763,0.014843462966382504,-0.04748140275478363,-0.0608195886015892,0.020162003114819527,-0.053040195256471634,0.02808380126953125,-0.005671421065926552
gravity,0.04987414926290512,0.0319235622882843,-0.010940546169877052,0.07842248678207397,-0.04390121251344681,0.020017512142658234,0.06532604247331619,-0.05737174302339554,0.06582208722829819,0.07257238030433655,-0.026717927306890488,-0.12040578573942184,-0.027522658929228783,0.022712839767336845,-0.06671306490898132,0.08985412865877151,0.06690230220556259,0.12110763788223267,-0.0033813014160841703,-0.06037604808807373,-0.029059335589408875,0.07475835829973221,0.0354699045419693,0.011438386514782906,0.058239541947841644,-0.05002400651574135,-0.05081963539123535,0.047770287841558456,0.025406423956155777,-0.023757843300700188,-0.07951745390892029,0.00624257093295455,-0.02459278330206871,0.008939902298152447,0.041626568883657455,-0.027587532997131348,0.04374970495700836,0.02719951421022415,0.026180971413850784,0.07567772269248962,0.10480080544948578,-0.04531611502170563,0.08574708551168442,0.03147927299141884,-0.036657433956861496,-0.030283942818641663,-0.03764503449201584,-0.00234367442317307,0.0625789538025856,0.014431276358664036,-0.07247697561979294,0.04473915323615074,-0.040269460529088974,-0.0018600901821628213,0.022370023652911186,0.010713141411542892,-0.01967010274529457,-0.0866830050945282,0.030906403437256813,-0.060979414731264114,-0.016818655654788017,0.10674005001783371,-0.06938507407903671,-0.08133689314126968,-0.024468963965773582,0.0014611697988584638,-0.05586850270628929,0.057694751769304276,-0.013829994946718216,0.045405931770801544,0.008226337842643261,0.0017616628902032971,0.04553249850869179,0.04134131222963333,-0.13641396164894104,-0.05512811243534088,0.05949189141392708,0.062019407749176025,0.04125272482633591,0.09402964264154434,0.018439481034874916,-0.022805221378803253,0.025622965767979622,-0.034726325422525406,-0.045755475759506226,-0.0352407768368721,-0.09344039857387543,0.11081632226705551,0.03851727768778801,0.016451247036457062,0.029092852026224136,0.020948376506567,-0.05489615723490715,0.008918439969420433,-0.025082767009735107,-0.030585281550884247,0.04777376726269722,0.04636848345398903,-0.009074215777218342,-0.024407383054494858,-0.020467089489102364,0.013745269738137722,0.021371671929955482,-0.016628973186016083,0.00016277215036097914,-0.016240499913692474,0.000985163962468505,-0.06740939617156982,0.004792734514921904,-0.07715045660734177,-0.036832939833402634,0.022795656695961952,0.016958171501755714,-0.021860111504793167,0.12665428221225739,-0.016177453100681305,0.00610736757516861,-0.029243789613246918,0.07139124721288681,0.012346637435257435,-0.09448118507862091,-0.008985216729342937,-0.007227659225463867,0.04545019194483757,-0.01940252259373665,-0.012781490571796894,-0.08291450887918472,-0.0014241080498322845,-0.025546642020344734,0.03660718724131584,-0.07058942317962646,-0.07214352488517761,-0.06063833087682724,0.02267659828066826,0.0267013031989336,-0.020161859691143036,0.027819080278277397,0.0028404810000211,-0.029430879279971123,0.044738881289958954,0.061142612248659134,-0.07460727542638779,-0.00044001435162499547,0.03645281493663788,0.01653578132390976,-0.0075856964103877544,0.0004084419342689216,0.012966204434633255,-0.047810349613428116,-0.025963714346289635,0.045781463384628296,0.030063051730394363,-0.052180785685777664,0.07660536468029022,-0.03295758366584778,-0.05518312379717827,-0.027314048260450363,-0.07887430489063263,-0.08882778137922287,-0.05338225141167641,-0.0026911527384072542,0.046083591878414154,0.028392314910888672,0.07471633702516556,0.01197148859500885,-0.07206495106220245,0.07140429317951202,-0.05286884307861328,-0.01821642741560936,0.007323944941163063,-0.08850976824760437,-0.01894485391676426,0.004263876937329769,-0.08098531514406204,-0.018520265817642212,0.0014136092504486442,0.0630008652806282,-0.09219491481781006,-0.038644369691610336,-0.013676312752068043,-0.08586174249649048,-0.06284099072217941,0.02040421962738037,-0.034720662981271744,-0.03636101633310318,-0.012792573310434818,-0.024852348491549492,-0.012535559944808483,0.030528802424669266,0.03174976259469986,0.010884399525821209,0.015055673196911812,0.0391288585960865,-0.00861785002052784,-0.029500560835003853,0.04243628308176994,-0.01517227478325367,-0.02756301872432232,-0.05439162999391556,-0.05935729667544365,0.05434774234890938,0.0730421394109726,-0.08378191292285919,0.010940240696072578,0.02977820858359337,-0.01743410900235176,-0.04512794688344002,-0.008571037091314793,-0.04584499076008797,-5.2617877372540534e-05,-0.021253354847431183,0.11116126924753189,-0.01611798256635666,0.03423383831977844,-0.11576396226882935,0.008943181484937668,0.06976663321256638,0.010421518236398697,-0.07199781388044357,-0.02916664257645607,-0.006295232102274895,0.03378653898835182,-0.029718348756432533,0.008925183676183224,0.031031427904963493,-0.004749733954668045,0.029961319640278816,-0.010877208784222603,-0.009725600481033325,-0.004918160382658243,0.013511216267943382,-0.04896601289510727,0.01866200380027294,0.037777822464704514,0.06669921427965164,0.002936431672424078,-0.015029548667371273,-0.048985011875629425,0.10128960013389587,-0.00010499663767404854,0.05460279807448387,-0.006879670545458794,0.016030075028538704,-0.09512529522180557,-0.014657657593488693,0.018493182957172394,0.014331910759210587,0.05405060946941376,-0.010539748705923557,-0.06302393972873688,-0.006669997237622738,0.050356846302747726,0.05705033987760544,0.10904071480035782,0.06721886992454529,-0.06185368448495865,0.011039390228688717,-0.03311701864004135,-0.07480339705944061,-0.08125047385692596,-0.05360065773129463,-0.0167678315192461,-0.03560686483979225,-0.0021762351971119642,0.03472443297505379,0.13526225090026855,0.0034322442952543497,-0.06377232819795609,-0.0712602287530899,-0.017209496349096298,0.004100521095097065,0.07833382487297058,0.06656812131404877,0.023389169946312904,0.07458033412694931,-0.03780859336256981,-0.056253690272569656,-0.07267683744430542,-0.055796634405851364,0.0176268108189106,-0.0005376933258958161,-0.017342355102300644,-0.016207970678806305,0.062051162123680115,0.016069961711764336,0.02707575634121895,-0.09636911004781723,-0.024717170745134354,0.0296443160623312,0.0540766716003418,-0.10601144284009933,0.04180493578314781,-0.11385125666856766,0.02101956307888031,-0.048514850437641144,-0.04289029538631439,0.02905251830816269,-0.051572155207395554,0.0213534627109766,-0.012086357921361923
spirited-away,0.05139666050672531,0.024223001673817635,0.007221854291856289,0.10417427122592926,-0.049883391708135605,0.025698073208332062,0.07543671131134033,-0.04079444706439972,0.07612241059541702,0.07732978463172913,-0.009431333281099796,-0.11513051390647888,-0.012439440935850143,0.01832735724747181,-0.09521101415157318,0.07632619887590408,0.06864223629236221,0.11594824492931366,-0.01285717636346817,-0.06374093145132065,-0.01646021567285061,0.0874558687210083,0.04929698631167412,0.010189677588641644,0.050234805792570114,-0.04103622958064079,-0.04149657487869263,0.0637717917561531,0.037347376346588135,-0.01875174045562744,-0.07798468321561813,0.01015426404774189,-0.04020649194717407,0.0301104336977005,0.04863831028342247,-0.02856307104229927,0.05017949268221855,0.007661406882107258,0.008978904224932194,0.09973154962062836,0.1232319176197052,-0.04588358476758003,0.07576959580183029,0.026426168158650398,-0.03220263123512268,-0.02617308497428894,-0.042086631059646606,0.008738675154745579,0.0624428316950798,-0.0019943753723055124,-0.09039744734764099,0.04541892558336258,-0.030538948252797127,0.015555576421320438,0.021647468209266663,0.006676179822534323,-0.009517635218799114,-0.09863761067390442,0.02314450778067112,-0.0482415035367012,-0.014528435654938221,0.10543014854192734,-0.06688793003559113,-0.07147157937288284,-0.03884018585085869,-0.004501551855355501,-0.07075084745883942,0.05924445018172264,-0.012705503962934017,0.050717875361442566,0.02581941708922386,0.017213871702551842,0.038565292954444885,0.03751858323812485,-0.12330368161201477,-0.04480482637882233,0.05618039146065712,0.0753401666879654,0.06344795972108841,0.1027127057313919,0.01018978375941515,-0.031082194298505783,0.014301287941634655,-0.02172302082180977,-0.07382252812385559,-0.034365393221378326,-0.09796835482120514,0.11544119566679001,0.055244192481040955,0.018992163240909576,0.023845329880714417,0.026796817779541016,-0.0734805315732956,-0.02385490946471691,-0.04977700859308243,-0.03625866770744324,0.05186579376459122,0.05057969316840172,-0.032349757850170135,-0.0229997206479311,-0.023926375433802605,0.02332811802625656,0.019663183018565178,-0.012443712912499905,-0.004581254441291094,-0.01732841320335865,0.0025031715631484985,-0.08271730691194534,0.012088135816156864,-0.07728269696235657,-0.04021969437599182,0.03960980102419853,0.01639012061059475,-0.018350910395383835,0.1458873152732849,-0.015432406216859818,0.011343462392687798,-0.04848148301243782,0.06714223325252533,0.016113894060254097,-0.0902455747127533,-0.0011402096133679152,0.0028538848273456097,0.03169436380267143,-0.040706340223550797,-0.011886358261108398,-0.08704940974712372,0.0036157649010419846,-0.048235513269901276,0.01646316610276699,-0.07575966417789459,-0.08350378274917603,-0.0447213388979435,0.023663144558668137,0.030077364295721054,-0.03494832292199135,0.010885477066040039,-0.0007652147323824465,-0.023560017347335815,0.030866367742419243,0.0674891248345375,-0.06674602627754211,0.003646103199571371,0.03895529359579086,0.03415980190038681,-0.009685823693871498,0.016871999949216843,0.011503448709845543,-0.04075842723250389,-0.037636008113622665,0.04251944646239281,0.04324624314904213,-0.04697789251804352,0.07711060345172882,-0.040829580277204514,-0.06468013674020767,-0.03988879546523094,-0.08512499183416367,-0.09210941195487976,-0.04783410206437111,-0.0016371278325095773,0.04471655935049057,0.03233619034290314,0.07129067927598953,0.01606944389641285,-0.06921585649251938,0.08487290889024734,-0.07164328545331955,-0.022258978337049484,0.011459171772003174,-0.08802337199449539,-0.008934278041124344,0.01610558107495308,-0.08573061227798462,-0.03754933550953865,0.028277745470404625,0.058226749300956726,-0.07903146743774414,-0.04001012071967125,-0.009628805331885815,-0.059531599283218384,-0.09114278107881546,0.006151849869638681,-0.03534562140703201,-0.02544781193137169,-0.0057386551052331924,-0.04557693004608154,-0.012413263320922852,0.03355168551206589,0.03155813738703728,0.01779135875403881,0.011184938251972198,0.0414515882730484,-0.017682570964097977,-0.010529139079153538,0.03698746860027313,-0.019503984600305557,-0.024009786546230316,-0.08196374028921127,-0.0798550546169281,0.05134003236889839,0.04758691042661667,-0.07961256802082062,0.013253848999738693,0.01669137552380562,-0.023210210725665092,-0.047348685562610626,-0.008304235525429249,-0.05750112980604172,-0.007999951019883156,-0.04577353596687317,0.12668482959270477,-0.007379877381026745,0.016353797167539597,-0.112101249396801,0.01781056635081768,0.08603540807962418,0.0038553657941520214,-0.0785406157374382,-0.0416746623814106,-0.009267321787774563,0.05615384131669998,-0.041911445558071136,0.014839386567473412,0.03189743310213089,0.002335831755772233,0.014890069141983986,-0.012347170151770115,-0.011336550116539001,-0.012002987787127495,0.02049250714480877,-0.048120275139808655,0.01025321427732706,0.05176960676908493,0.08008240908384323,0.007001220714300871,0.0002308225812157616,-0.046858590096235275,0.10397600382566452,0.004651696886867285,0.05133361369371414,-0.017919326201081276,0.0016620702808722854,-0.09613686054944992,-0.0176868736743927,0.03380117937922478,0.02130695804953575,0.05501836538314819,-0.020920459181070328,-0.06862443685531616,-0.009174707345664501,0.06430552154779434,0.08729425072669983,0.10517363995313644,0.05260322988033295,-0.05803993344306946,-0.019742347300052643,-0.03614477068185806,-0.09452980011701584,-0.09491640329360962,-0.05982162430882454,0.008744226768612862,-0.03960499167442322,-0.0066065359860658646,0.02850605733692646,0.1330307573080063,-0.016384879127144814,-0.041465871036052704,-0.07745420187711716,0.001771279494278133,0.0037989059928804636,0.10766986757516861,0.06628280878067017,0.02638906240463257,0.08967062085866928,-0.039317961782217026,-0.06778404116630554,-0.08433017134666443,-0.042044006288051605,0.005758657585829496,0.005866256542503834,-0.026057666167616844,-0.03244328871369362,0.07511315494775772,0.02141992375254631,0.022567132487893105,-0.11130066961050034,-0.01519599836319685,0.0098310187458992,0.07256007194519043,-0.1071067824959755,0.05408693477511406,-0.10828179121017456,0.0036060288548469543,-0.0460362508893013,-0.055925607681274414,0.024625860154628754,-0.05559200048446655,0.028926832601428032,-0.015115215443074703
beauty-and-the-beast-1991,0.05253327265381813,0.015168503858149052,-0.021174415946006775,0.10488364845514297,-0.0384286567568779,0.02647549845278263,0.03543529659509659,-0.0641886368393898,0.04558948799967766,0.07090847939252853,-0.03467671200633049,-0.10385653376579285,-0.01567993126809597,0.00624838238582015,-0.08024051785469055,0.07129934430122375,0.06240033730864525,0.1088273748755455,-0.0427146852016449,-0.06411489099264145,-0.022816484794020653,0.089524045586586,0.045732319355010986,0.0048977527767419815,0.03024936653673649,-0.06834186613559723,-0.05220883712172508,0.0770079642534256,0.027616139501333237,-0.030836956575512886,-0.05433220788836479,0.02630840241909027,-0.03203556314110756,0.03960462659597397,0.053204577416181564,-0.034439608454704285,0.04806848242878914,0.00924036093056202,0.009462918154895306,0.07385068386793137,0.10613907873630524,-0.04697265848517418,0.06972016394138336,0.02539404295384884,-0.02719126082956791,-0.026469701901078224,-0.04633166268467903,0.02786044031381607,0.0800476148724556,0.025654692202806473,-0.06997666507959366,0.07122241705656052,-0.039054736495018005,0.031023375689983368,0.016665397211909294,0.03380468115210533,-0.010629282332956791,-0.11046227812767029,0.02095990628004074,-0.03589872270822525,-0.015320764854550362,0.1062014102935791,-0.07592746615409851,-0.07159577310085297,-0.01648593507707119,-0.010871179401874542,-0.08758397400379181,0.04716020077466965,-0.002360057318583131,0.04288449510931969,0.042436208575963974,-0.009404772892594337,0.037273503839969635,0.0497322604060173,-0.11625707894563675,-0.02629402093589306,0.0650392398238182,0.07410938292741776,0.060148388147354126,0.09866766631603241,0.002552672754973173,-0.020574726164340973,0.0021832974161952734,-0.05610095337033272,-0.06693779677152634,-0.04462786018848419,-0.1018408015370369,0.11079323291778564,0.043795980513095856,0.05047931149601936,-0.021596694365143776,0.008096300065517426,-0.0773940160870552,-0.012168009765446186,-0.048630475997924805,-0.05035720020532608,0.029181815683841705,0.030344488099217415,-0.025424683466553688,-0.0545087605714798,-0.027376653626561165,0.045524585992097855,0.03321795538067818,-0.008952775038778782,-0.014419050887227058,-0.039738718420267105,0.01529163122177124,-0.060958683490753174,0.0029724244959652424,-0.1078253835439682,-0.0211220383644104,0.051293421536684036,0.014553473331034184,-0.00945234578102827,0.1593523621559143,0.0073586925864219666,-3.992541223851731e-06,-0.06853825598955154,0.06574179232120514,-0.015631312504410744,-0.09329352527856827,-0.012049183249473572,0.018091736361384392,0.030107345432043076,-0.03613244742155075,0.015133379958570004,-0.08159056305885315,0.021285280585289,-0.03741816058754921,0.026353785768151283,-0.09069492667913437,-0.06340402364730835,-0.05684901773929596,0.019368669018149376,0.023007668554782867,-0.017774155363440514,0.028174804523587227,0.005211923737078905,-0.015980616211891174,0.041308172047138214,0.06352730095386505,-0.0636967346072197,0.0014829854480922222,0.04594249278306961,0.022331472486257553,-0.016949620097875595,0.03977084159851074,0.05001514405012131,-0.02286362275481224,-0.024651695042848587,0.041895631700754166,0.0367453470826149,-0.038546573370695114,0.09538169205188751,-0.0583224892616272,-0.05614643171429634,-0.026036109775304794,-0.08730490505695343,-0.08335118740797043,-0.057144664227962494,-0.015104216523468494,0.07073482871055603,0.05143488198518753,0.06325734406709671,0.024476315826177597,-0.07478860765695572,0.0684308111667633,-0.07329762727022171,-0.0688621923327446,0.013371140696108341,-0.07552801072597504,0.005485395435243845,-0.0046528237871825695,-0.09421338140964508,-0.03270868584513664,0.025915348902344704,0.04550077021121979,-0.06061260402202606,-0.04348384216427803,-0.016488801687955856,-0.0767291858792305,-0.044618409126996994,0.028876174241304398,-0.06731116771697998,-0.03454381972551346,-0.01344105415046215,-0.021706176921725273,-0.03529507666826248,0.03225402161478996,0.0384896956384182,-0.010981405153870583,0.004224681295454502,0.0226777084171772,-0.03165337070822716,-0.014807895757257938,0.028422536328434944,-0.02682119980454445,-0.04122214764356613,-0.06230054795742035,-0.06628235429525375,0.06211113557219505,0.04229340702295303,-0.05176692456007004,0.01825614832341671,-0.003975053783506155,-0.031474050134420395,-0.026896554976701736,-0.013301433995366096,-0.06910143792629242,-0.0009924909099936485,-0.06227123364806175,0.11879678070545197,-0.012373441830277443,0.03158128634095192,-0.06387127190828323,0.001362357521429658,0.09138108789920807,0.0010615275241434574,-0.062245048582553864,-0.0407557412981987,-0.0019942251965403557,0.060292039066553116,-0.021264633163809776,0.015934094786643982,0.024013780057430267,0.013975853100419044,-0.0007207453600130975,-0.034164909273386,-0.010133998468518257,0.01257712859660387,-0.008457169868052006,-0.044334765523672104,-0.021829737350344658,0.03780676797032356,0.055983126163482666,0.03894829377532005,-0.02706216275691986,-0.06809309870004654,0.08527874201536179,-0.010250831954181194,0.06553605943918228,-0.03666175529360771,0.009563855826854706,-0.09396116435527802,-0.022455362603068352,0.02373974397778511,0.018917392939329147,0.04298647120594978,-0.04264263063669205,-0.08477741479873657,-0.006574851926416159,0.0783889964222908,0.07051294296979904,0.0902823656797409,0.058627329766750336,-0.04547027125954628,-0.021912964060902596,-0.0422213152050972,-0.11286554485559464,-0.07788380235433578,-0.052251800894737244,-0.001752194482833147,-0.0555930957198143,0.0032388067338615656,0.021151170134544373,0.11531195044517517,-0.05272271856665611,-0.06798908859491348,-0.06414936482906342,-0.009619846940040588,-0.010176553390920162,0.11822134256362915,0.030634021386504173,0.02611124888062477,0.09008065611124039,-0.03218112885951996,-0.0483798049390316,-0.06996948271989822,-0.05489440634846687,0.03513683006167412,-0.020100584253668785,0.0040812804363667965,-0.046011149883270264,0.0633401870727539,0.025465087965130806,0.004714697599411011,-0.08600540459156036,-0.02357715368270874,0.02234167605638504,0.05763706937432289,-0.10202090442180634,0.031383540481328964,-0.12284073978662491,0.004692938178777695,-0.0537673644721508,-0.041585247963666916,0.017993876710534096,-0.05008544772863388,0.040020547807216644,-0.022965319454669952
carol,0.04894711449742317,0.029143210500478745,-0.01356212142854929,0.06935316324234009,-0.0415547676384449,0.011986793018877506,0.0648532509803772,-0.05725875496864319,0.06409667432308197,0.07591336965560913,-0.01981426775455475,-0.1118980199098587,-0.01747768558561802,0.03180397301912308,-0.06932695209980011,0.09105578064918518,0.07820633053779602,0.1100582554936409,-0.0026993704959750175,-0.05761817842721939,-0.01261161919683218,0.06843232363462448,0.03303308039903641,-0.007774278521537781,0.07164305448532104,-0.05817804113030434,-0.0447491854429245,0.0512118823826313,0.019863972440361977,0.00041556006181053817,-0.0687171071767807,-0.011897288262844086,-0.021630045026540756,0.010508590377867222,0.05499962717294693,-0.02325647510588169,0.04863230511546135,0.02145976759493351,0.015257168561220169,0.07646339386701584,0.11131212115287781,-0.029957346618175507,0.06659377366304398,-0.0007335526752285659,-0.031388889998197556,-0.02546982653439045,-0.044753000140190125,0.003538364777341485,0.05800613388419151,0.02290206588804722,-0.05633716285228729,0.038876328617334366,-0.04062451422214508,-0.003994304221123457,0.01798979938030243,0.006768389604985714,-0.015315385535359383,-0.08805873990058899,0.018501514568924904,-0.06726974993944168,-0.011600074358284473,0.10340878367424011,-0.07081948220729828,-0.06447325646877289,-0.028237076476216316,0.007439187727868557,-0.052947551012039185,0.05436474829912186,-0.006736579816788435,0.04451470449566841,0.03094146028161049,0.004325326532125473,0.04214353859424591,0.03303414210677147,-0.13207750022411346,-0.03461240977048874,0.05477632209658623,0.07914584875106812,0.06196123734116554,0.11402307450771332,0.022528542205691338,-0.015433228574693203,0.026825828477740288,-0.03203841671347618,-0.055248234421014786,-0.03754235431551933,-0.09850728511810303,0.10815244168043137,0.03692769259214401,0.011567086912691593,0.0355190709233284,0.009741186164319515,-0.0632028728723526,-0.006297998130321503,-0.03950629010796547,-0.04368314519524574,0.03883436694741249,0.03676528483629227,-0.03563283383846283,-0.04022336006164551,-0.0380905382335186,0.0010452086571604013,0.02973521687090397,-0.017943836748600006,0.0017275848658755422,-0.04223952442407608,0.003668308025225997,-0.06718254089355469,0.010636584833264351,-0.0641494169831276,-0.03352499008178711,0.021582279354333878,0.026854069903492928,-0.015046902000904083,0.12648533284664154,-0.020807096734642982,0.015180679038167,-0.0390903577208519,0.08729561418294907,0.03279262036085129,-0.08279553055763245,0.010182425379753113,0.006616862490773201,0.036395322531461716,-0.02903471514582634,-0.014647518284618855,-0.06575679779052734,-0.002232881495729089,-0.02907720021903515,0.03923236206173897,-0.06863890588283539,-0.07854335755109787,-0.05731809884309769,0.030378831550478935,0.01778106950223446,-0.023238392546772957,0.020603632554411888,0.007670063059777021,-0.01371720526367426,0.04516458138823509,0.052201367914676666,-0.05956859141588211,-0.0023399158380925655,0.026799090206623077,0.022518396377563477,0.011438509449362755,-0.006253040861338377,0.01210066769272089,-0.052622489631175995,-0.034493301063776016,0.06290121376514435,0.04296310245990753,-0.03785711154341698,0.08135824650526047,-0.02616235241293907,-0.03724563121795654,-0.039666708558797836,-0.07705926895141602,-0.06308673322200775,-0.04969192296266556,-0.011130379512906075,0.048942141234874725,0.05977550521492958,0.07762173563241959,0.013756352476775646,-0.06416211277246475,0.06993476301431656,-0.06299929320812225,-0.020748214796185493,0.012549382634460926,-0.08941811323165894,-0.013763252645730972,0.012391331605613232,-0.09254128485918045,-0.00719441520050168,0.01509737316519022,0.062029581516981125,-0.08059756457805634,-0.0443740114569664,-0.009401164017617702,-0.08274858444929123,-0.06246945261955261,0.013540253043174744,-0.015744687989354134,-0.046698715537786484,-0.013151424005627632,-0.04672032222151756,-0.013567786663770676,0.03592367470264435,0.028396354988217354,0.014706791378557682,0.0006458177231252193,0.04983613267540932,-0.00014746928354725242,-0.024376705288887024,0.04318660870194435,-0.009280038066208363,-0.01677621901035309,-0.056554388254880905,-0.05104812979698181,0.045349497348070145,0.04338495433330536,-0.06000630557537079,0.009380154311656952,0.03766248747706413,-0.025237008929252625,-0.041545141488313675,0.007890570908784866,-0.03533918410539627,-0.02077885903418064,-0.031061982735991478,0.08496951311826706,-0.008658643811941147,0.028315946459770203,-0.09633692353963852,0.001732357544824481,0.059883326292037964,0.021485691890120506,-0.0751868337392807,-0.030901120975613594,0.00018042123701889068,0.04909907653927803,-0.036317285150289536,0.013073560781776905,0.04173171520233154,-0.01685285195708275,0.023512864485383034,-0.01087385043501854,-0.015415801666676998,-0.00579075375571847,0.013440257869660854,-0.03391347452998161,-0.0019452932756394148,0.0542176216840744,0.07086514681577682,-0.00913589634001255,1.0422961167932954e-05,-0.054477717727422714,0.08669525384902954,0.005113891791552305,0.052293021231889725,-0.011446069926023483,0.012548363767564297,-0.07798979431390762,-0.011853900738060474,0.034505508840084076,0.018392104655504227,0.04246053472161293,-0.007531396113336086,-0.047077614814043045,-0.0026949760504066944,0.06675069034099579,0.060534656047821045,0.09295331686735153,0.04767042025923729,-0.05369757488369942,0.005499411839991808,-0.0288313589990139,-0.08173563331365585,-0.05965666472911835,-0.05677100270986557,0.00023511530889663845,-0.046538278460502625,0.013977142050862312,0.03994741663336754,0.13697068393230438,-0.014811666682362556,-0.04840981215238571,-0.06755969673395157,0.0027933954261243343,0.021375657990574837,0.07865574955940247,0.0474141389131546,0.03604473918676376,0.0727422833442688,-0.03718281909823418,-0.05314601957798004,-0.053162746131420135,-0.05036710575222969,0.00872865878045559,0.015256543643772602,-0.0388360358774662,-0.016227785497903824,0.05596084147691727,0.029572248458862305,0.011667090468108654,-0.09769300371408463,-0.020632626488804817,0.029349924996495247,0.06375838071107864,-0.1025688648223877,0.036260779947042465,-0.10593981295824051,0.007587679661810398,-0.04984826594591141,-0.040907926857471466,0.04572640731930733,-0.05358434095978737,0.028316065669059753,0.00012979918392375112
toy-story,0.04611091688275337,0.025591880083084106,-0.003162240842357278,0.11108091473579407,-0.020334819331765175,0.0110096400603652,0.06552783399820328,-0.04000219702720642,0.08551377803087234,0.07647658884525299,-0.01762649416923523,-0.09531554579734802,0.0037194457836449146,0.003963852301239967,-0.08997157216072083,0.07422061264514923,0.07128890603780746,0.10395099967718124,-0.04493815451860428,-0.046749379485845566,-0.008962460793554783,0.07614729553461075,0.050868161022663116,0.01765448786318302,0.03547844663262367,-0.0493568517267704,-0.0445808470249176,0.07042838633060455,0.0539839044213295,-0.019960835576057434,-0.08530984073877335,-0.00782924983650446,-0.0321480929851532,0.043763671070337296,0.06944622099399567,-0.027127809822559357,0.05678059533238411,0.028715476393699646,0.012979984283447266,0.09807530790567398,0.11628015339374542,-0.04398752376437187,0.059774018824100494,0.039612237364053726,-0.031108470633625984,-0.01879556104540825,-0.03056812845170498,0.009128281846642494,0.08055821061134338,0.0013780161971226335,-0.08974653482437134,0.04621152952313423,-0.03366299718618393,0.020905310288071632,0.02532362751662731,0.005420458968728781,0.007525088731199503,-0.09928744286298752,0.001708413241431117,-0.05398581176996231,-0.018075255677103996,0.11695201694965363,-0.08105293661355972,-0.0642591118812561,-0.04663579538464546,0.004922172054648399,-0.08231250196695328,0.04708252102136612,-0.006721222307533026,0.05546021834015846,0.02676178514957428,0.0016816772986203432,0.017222240567207336,0.0368172861635685,-0.12258630990982056,-0.02692929282784462,0.06408937275409698,0.06191394478082657,0.06204426288604736,0.08763358741998672,0.005798071622848511,-0.03127298876643181,0.025262294337153435,-0.042620401829481125,-0.07038979232311249,-0.05236593261361122,-0.10368544608354568,0.11132686585187912,0.04364663362503052,0.006067306734621525,0.013946913182735443,0.026808569207787514,-0.06295989453792572,-0.010923962108790874,-0.045032814145088196,-0.04066073149442673,0.049841463565826416,0.04882952943444252,-0.031342267990112305,-0.03577541187405586,-0.012949313037097454,0.04321398586034775,0.01077703945338726,-0.03141292557120323,0.004020759370177984,-0.028789129108190536,0.01338363066315651,-0.07493793964385986,0.0002599652507342398,-0.08117788285017014,-0.030861783772706985,0.04357880353927612,0.007828396745026112,-0.022706104442477226,0.15321481227874756,-0.006469451356679201,-0.009075534529983997,-0.04727296531200409,0.06312651932239532,-0.005894738715142012,-0.07895216345787048,-0.010804231278598309,0.018550429493188858,0.03630668669939041,-0.0425170436501503,-0.009298132732510567,-0.08875852823257446,0.001599848154000938,-0.06366343796253204,0.02070956490933895,-0.08184204250574112,-0.08653170615434647,-0.05601862072944641,0.02094591036438942,0.014173418283462524,-0.02253284491598606,0.020755920559167862,-0.004414139315485954,-0.023929430171847343,0.025782402604818344,0.07073106616735458,-0.053187549114227295,0.005927329417318106,0.035368967801332474,0.026613090187311172,-0.03074526973068714,0.04185701161623001,0.008244968019425869,-0.02799876220524311,-0.034792155027389526,0.04991449415683746,0.03319665789604187,-0.04620428383350372,0.09802409261465073,-0.04024525731801987,-0.08207505196332932,-0.03656959533691406,-0.08629132807254791,-0.09144384413957596,-0.08064146339893341,-0.003163582179695368,0.0419488251209259,0.052110396325588226,0.08102794736623764,0.020917709916830063,-0.07211676985025406,0.09107054024934769,-0.05110945925116539,-0.03791619837284088,0.024097969755530357,-0.06396620720624924,-0.015120402909815311,0.0365176685154438,-0.11790265887975693,-0.028712864965200424,0.048039790242910385,0.057842496782541275,-0.06718558073043823,-0.039418309926986694,0.013758867047727108,-0.05156291276216507,-0.0921631008386612,0.013777805492281914,-0.04883917048573494,-0.02482769265770912,-0.00064638297772035,-0.050211068242788315,-0.019856663420796394,0.03971433266997337,0.03907746821641922,0.007210398558527231,0.04434327408671379,0.026936259120702744,-0.010984442196786404,0.0033195558935403824,0.029683081433176994,-0.019358927384018898,-0.037750210613012314,-0.09010861814022064,-0.06536195427179337,0.041287779808044434,0.03654943034052849,-0.056573208421468735,0.016957437619566917,0.0034088094253093004,-0.019365385174751282,-0.052281592041254044,-0.009964759461581707,-0.07851542532444,0.00686586694791913,-0.049159567803144455,0.13664023578166962,-0.010674431920051575,0.030738508328795433,-0.07271178811788559,0.03954055532813072,0.08757664263248444,0.001783505198545754,-0.06893148273229599,-0.03682306781411171,-0.009589643217623234,0.05984978377819061,-0.02922789193689823,0.0004197165835648775,0.04016794264316559,0.022332536056637764,-0.005776017438620329,-0.024287024512887,-0.021549033001065254,-0.015582513995468616,0.00015706627164036036,-0.03281784802675247,-0.013724535703659058,0.045372527092695236,0.05682085081934929,0.01514443289488554,0.004888161551207304,-0.0589335672557354,0.10213826596736908,-0.002197239315137267,0.0556812658905983,-0.037485986948013306,0.008899751119315624,-0.08841998130083084,-0.03092244826257229,0.04481346905231476,0.025759505107998848,0.05625671520829201,0.001297745038755238,-0.09231694787740707,-0.019235288724303246,0.06648088246583939,0.06039543077349663,0.10729830712080002,0.05657406523823738,-0.039269719272851944,-0.014367078430950642,-0.05986037105321884,-0.10737558454275131,-0.0990537628531456,-0.06421253085136414,0.0014173946110531688,-0.04362852871417999,-0.013056029565632343,0.029926275834441185,0.13452686369419098,-0.024232974275946617,-0.049544937908649445,-0.08355196565389633,0.0013309841742739081,-0.004988461267203093,0.09940169751644135,0.04867829009890556,0.01517080795019865,0.11095035076141357,-0.03703636676073074,-0.055215392261743546,-0.09078195691108704,-0.04804123193025589,-0.008740928024053574,-0.011030297726392746,-0.014787460677325726,-0.05425615981221199,0.08594736456871033,0.022206783294677734,0.01924770511686802,-0.11230598390102386,-0.016115309670567513,0.015792595222592354,0.0812298133969307,-0.11674727499485016,0.05529041215777397,-0.12517963349819183,0.002909980248659849,-0.04050358384847641,-0.06427883356809616,0.010955839417874813,-0.052245255559682846,0.010050601325929165,-0.028361933305859566
the-social-network,0.04525238648056984,0.026278434321284294,-0.006341675296425819,0.08526050299406052,-0.03895704448223114,0.013968422077596188,0.06670954823493958,-0.04271804913878441,0.08517102897167206,0.06916818022727966,-0.014037223532795906,-0.10501032322645187,-0.011966082267463207,0.029268130660057068,-0.0805514007806778,0.09056448191404343,0.0698784589767456,0.11191446334123611,-0.004593438468873501,-0.06513821333646774,-0.015916593372821808,0.08337036520242691,0.03987322002649307,0.015876997262239456,0.06953640282154083,-0.04188697040081024,-0.04291582107543945,0.05813941732048988,0.030384045094251633,-0.0050104400143027306,-0.07212921231985092,-0.002383013255894184,-0.014921637251973152,0.013592406176030636,0.06422615051269531,-0.010258072055876255,0.04735007882118225,0.016086334362626076,0.017591113224625587,0.08185463398694992,0.11096210032701492,-0.04484618455171585,0.07619413733482361,0.010292361490428448,-0.03772478178143501,-0.02334539406001568,-0.04728611186146736,0.0007052628207020462,0.05673544481396675,0.006448469590395689,-0.05565404146909714,0.0393814854323864,-0.04805358499288559,-0.01156338769942522,0.024132832884788513,0.016530716791749,-0.02079356461763382,-0.08924464136362076,0.0352235808968544,-0.06381785869598389,-0.013999182730913162,0.10595258325338364,-0.09538165479898453,-0.06938692927360535,-0.020372534170746803,0.006002227775752544,-0.05656076595187187,0.057623378932476044,-0.00968417339026928,0.03341981768608093,0.017651304602622986,0.005833481904119253,0.04773268103599548,0.03427775576710701,-0.13181854784488678,-0.0557645745575428,0.05385371297597885,0.07926501333713531,0.06814608722925186,0.10933993756771088,0.019101200625300407,-0.02397994138300419,0.029702192172408104,-0.013736259192228317,-0.06142190471291542,-0.05586862564086914,-0.08965277671813965,0.11541341245174408,0.03514450415968895,0.009703386574983597,0.034893203526735306,0.011877144686877728,-0.05475293844938278,-0.021364809945225716,-0.035059604793787,-0.04349811375141144,0.045729272067546844,0.04537161439657211,-0.03830772638320923,-0.031937431544065475,-0.028166603296995163,0.005320505239069462,0.023474663496017456,-0.005466389935463667,-0.0019497625762596726,-0.034948840737342834,-0.010192375630140305,-0.07283814996480942,0.011405409313738346,-0.07996747642755508,-0.03212343901395798,0.0112818144261837,0.0037802907172590494,-0.019952161237597466,0.13027383387088776,-0.020679112523794174,0.02481250651180744,-0.03289312869310379,0.0839991420507431,0.02115919254720211,-0.08222418278455734,0.0007780212326906621,-0.013901947066187859,0.04991905763745308,-0.04367901757359505,-0.010759052820503712,-0.07080089300870895,2.8358112103887834e-05,-0.03754200413823128,0.022340133786201477,-0.07531923800706863,-0.09467973560094833,-0.05182015895843506,0.0266342144459486,0.022791646420955658,-0.03654574230313301,0.036428678780794144,0.025649284943938255,-0.025912409648299217,0.0459519661962986,0.05124007910490036,-0.05779804289340973,0.011439532972872257,0.03240865096449852,0.023382017388939857,-0.0010875231819227338,-0.00046350821503438056,-0.009587722830474377,-0.0355304554104805,-0.028882917016744614,0.05075906589627266,0.049412671476602554,-0.056681547313928604,0.0735529214143753,-0.02726707048714161,-0.0468156561255455,-0.04977802559733391,-0.08627404272556305,-0.07089836150407791,-0.04711844027042389,-0.004485993180423975,0.046248894184827805,0.035469625145196915,0.06232202798128128,0.020756185054779053,-0.061623211950063705,0.0651003047823906,-0.05619972571730614,-0.008784300647675991,0.012174501083791256,-0.0914405807852745,-0.018164556473493576,0.0352889820933342,-0.08561566472053528,-0.017335347831249237,0.011087841354310513,0.06401856243610382,-0.08057760447263718,-0.04116065427660942,0.002997805830091238,-0.0638246163725853,-0.06844547390937805,0.01184651255607605,-0.019493315368890762,-0.0358094796538353,-0.010720240883529186,-0.05448959022760391,0.0014501340920105577,0.040074028074741364,0.024693714454770088,0.0175611712038517,0.0136643685400486,0.030830087140202522,-0.010855907574295998,-0.02464035153388977,0.029685338959097862,-0.020054934546351433,-0.020603174343705177,-0.05688348412513733,-0.07398317009210587,0.05527089908719063,0.06694059818983078,-0.05172622948884964,0.01304825209081173,0.021084006875753403,-0.012807035818696022,-0.044732045382261276,-0.003216829616576433,-0.04376712441444397,-0.006951058749109507,-0.014201479963958263,0.1087150126695633,-0.008486408740282059,0.03144289553165436,-0.10067290812730789,0.014530281536281109,0.07107474654912949,0.007471398916095495,-0.07133056223392487,-0.019834894686937332,-0.013029774650931358,0.035198163241147995,-0.03880910947918892,0.011558014899492264,0.045250505208969116,-0.013002235442399979,0.03107023425400257,-0.008065467700362206,-0.021346881985664368,-0.011657286435365677,0.01961803250014782,-0.041965726763010025,0.012643767520785332,0.03239346668124199,0.07295762002468109,-0.0030783445108681917,-0.0008169732755050063,-0.043978091329336166,0.09020259231328964,0.0061699082143604755,0.05924823880195618,0.0026085232384502888,0.012115797027945518,-0.087244912981987,-0.015345161780714989,0.03063133731484413,0.03043637052178383,0.055447790771722794,-0.011178451590240002,-0.06437011808156967,-0.015025170519948006,0.0661364197731018,0.05551568791270256,0.10305838286876678,0.060053348541259766,-0.044351402670145035,0.008019872941076756,-0.020591387525200844,-0.07837240397930145,-0.09385967254638672,-0.05276264250278473,-0.005632768385112286,-0.040274057537317276,0.013437199406325817,0.03299308940768242,0.13689672946929932,-0.013139170594513416,-0.06112131103873253,-0.08113550394773483,-0.008103633299469948,0.01718638464808464,0.08503442257642746,0.06530739367008209,0.02606942690908909,0.06318759173154831,-0.0427294559776783,-0.05062808096408844,-0.07201017439365387,-0.0473552905023098,0.011375713162124157,0.004543306306004524,-0.03254418447613716,-0.024467304348945618,0.07687553018331528,0.016210047528147697,0.021250754594802856,-0.10411270707845688,-0.011275515891611576,0.029210522770881653,0.043953683227300644,-0.10011646896600723,0.04849474877119064,-0.11265231668949127,0.02005840837955475,-0.05501067638397217,-0.049686308950185776,0.04686993360519409,-0.047720927745103836,0.025899481028318405,-0.011740070767700672
